digraph Tree {
node [shape=box] ;
0 [label="X[2] <= 25050000.0\ngini = 0.867\nsamples = 2996\nvalue = [220, 419, 400, 606, 454, 347, 283, 122, 145]"] ;
1 [label="X[2] <= 2550000.0\ngini = 0.827\nsamples = 1490\nvalue = [211, 360, 272, 309, 170, 86, 53, 17, 12]"] ;
0 -> 1 [labeldistance=2.5, labelangle=45, headlabel="True"] ;
2 [label="X[3] <= 1996.5\ngini = 0.683\nsamples = 247\nvalue = [108, 81, 22, 23, 8, 0, 4, 1, 0]"] ;
1 -> 2 ;
3 [label="X[50] <= 0.5\ngini = 0.736\nsamples = 62\nvalue = [7, 26, 9, 14, 3, 0, 2, 1, 0]"] ;
2 -> 3 ;
4 [label="X[30] <= 0.5\ngini = 0.586\nsamples = 39\nvalue = [4, 24, 4, 4, 0, 0, 2, 1, 0]"] ;
3 -> 4 ;
5 [label="X[2] <= 475000.0\ngini = 0.543\nsamples = 37\nvalue = [4, 24, 4, 4, 0, 0, 0, 1, 0]"] ;
4 -> 5 ;
6 [label="X[2] <= 62500.0\ngini = 0.133\nsamples = 14\nvalue = [0, 13, 1, 0, 0, 0, 0, 0, 0]"] ;
5 -> 6 ;
7 [label="X[3] <= 1993.5\ngini = 0.444\nsamples = 3\nvalue = [0, 2, 1, 0, 0, 0, 0, 0, 0]"] ;
6 -> 7 ;
8 [label="gini = 0.0\nsamples = 2\nvalue = [0, 2, 0, 0, 0, 0, 0, 0, 0]"] ;
7 -> 8 ;
9 [label="gini = 0.0\nsamples = 1\nvalue = [0, 0, 1, 0, 0, 0, 0, 0, 0]"] ;
7 -> 9 ;
10 [label="gini = 0.0\nsamples = 11\nvalue = [0, 11, 0, 0, 0, 0, 0, 0, 0]"] ;
6 -> 10 ;
11 [label="X[2] <= 604500.0\ngini = 0.692\nsamples = 23\nvalue = [4, 11, 3, 4, 0, 0, 0, 1, 0]"] ;
5 -> 11 ;
12 [label="X[3] <= 1972.0\ngini = 0.625\nsamples = 4\nvalue = [1, 0, 2, 1, 0, 0, 0, 0, 0]"] ;
11 -> 12 ;
13 [label="gini = 0.0\nsamples = 2\nvalue = [0, 0, 2, 0, 0, 0, 0, 0, 0]"] ;
12 -> 13 ;
14 [label="X[3] <= 1973.5\ngini = 0.5\nsamples = 2\nvalue = [1, 0, 0, 1, 0, 0, 0, 0, 0]"] ;
12 -> 14 ;
15 [label="gini = 0.0\nsamples = 1\nvalue = [1, 0, 0, 0, 0, 0, 0, 0, 0]"] ;
14 -> 15 ;
16 [label="gini = 0.0\nsamples = 1\nvalue = [0, 0, 0, 1, 0, 0, 0, 0, 0]"] ;
14 -> 16 ;
17 [label="X[0] <= 97.0\ngini = 0.609\nsamples = 19\nvalue = [3, 11, 1, 3, 0, 0, 0, 1, 0]"] ;
11 -> 17 ;
18 [label="X[2] <= 950000.0\ngini = 0.694\nsamples = 7\nvalue = [3, 2, 1, 0, 0, 0, 0, 1, 0]"] ;
17 -> 18 ;
19 [label="gini = 0.0\nsamples = 2\nvalue = [0, 2, 0, 0, 0, 0, 0, 0, 0]"] ;
18 -> 19 ;
20 [label="X[44] <= 0.5\ngini = 0.56\nsamples = 5\nvalue = [3, 0, 1, 0, 0, 0, 0, 1, 0]"] ;
18 -> 20 ;
21 [label="X[2] <= 1200000.0\ngini = 0.375\nsamples = 4\nvalue = [3, 0, 1, 0, 0, 0, 0, 0, 0]"] ;
20 -> 21 ;
22 [label="gini = 0.0\nsamples = 1\nvalue = [0, 0, 1, 0, 0, 0, 0, 0, 0]"] ;
21 -> 22 ;
23 [label="gini = 0.0\nsamples = 3\nvalue = [3, 0, 0, 0, 0, 0, 0, 0, 0]"] ;
21 -> 23 ;
24 [label="gini = 0.0\nsamples = 1\nvalue = [0, 0, 0, 0, 0, 0, 0, 1, 0]"] ;
20 -> 24 ;
25 [label="X[0] <= 134.0\ngini = 0.375\nsamples = 12\nvalue = [0, 9, 0, 3, 0, 0, 0, 0, 0]"] ;
17 -> 25 ;
26 [label="X[0] <= 102.0\ngini = 0.198\nsamples = 9\nvalue = [0, 8, 0, 1, 0, 0, 0, 0, 0]"] ;
25 -> 26 ;
27 [label="X[0] <= 99.5\ngini = 0.444\nsamples = 3\nvalue = [0, 2, 0, 1, 0, 0, 0, 0, 0]"] ;
26 -> 27 ;
28 [label="gini = 0.0\nsamples = 2\nvalue = [0, 2, 0, 0, 0, 0, 0, 0, 0]"] ;
27 -> 28 ;
29 [label="gini = 0.0\nsamples = 1\nvalue = [0, 0, 0, 1, 0, 0, 0, 0, 0]"] ;
27 -> 29 ;
30 [label="gini = 0.0\nsamples = 6\nvalue = [0, 6, 0, 0, 0, 0, 0, 0, 0]"] ;
26 -> 30 ;
31 [label="X[5] <= 1.35\ngini = 0.444\nsamples = 3\nvalue = [0, 1, 0, 2, 0, 0, 0, 0, 0]"] ;
25 -> 31 ;
32 [label="gini = 0.0\nsamples = 1\nvalue = [0, 1, 0, 0, 0, 0, 0, 0, 0]"] ;
31 -> 32 ;
33 [label="gini = 0.0\nsamples = 2\nvalue = [0, 0, 0, 2, 0, 0, 0, 0, 0]"] ;
31 -> 33 ;
34 [label="gini = 0.0\nsamples = 2\nvalue = [0, 0, 0, 0, 0, 0, 2, 0, 0]"] ;
4 -> 34 ;
35 [label="X[4] <= 6.75\ngini = 0.722\nsamples = 23\nvalue = [3, 2, 5, 10, 3, 0, 0, 0, 0]"] ;
3 -> 35 ;
36 [label="X[42] <= 0.5\ngini = 0.722\nsamples = 13\nvalue = [3, 2, 5, 3, 0, 0, 0, 0, 0]"] ;
35 -> 36 ;
37 [label="X[3] <= 1983.0\ngini = 0.678\nsamples = 11\nvalue = [1, 2, 5, 3, 0, 0, 0, 0, 0]"] ;
36 -> 37 ;
38 [label="X[5] <= 1.61\ngini = 0.32\nsamples = 5\nvalue = [0, 1, 4, 0, 0, 0, 0, 0, 0]"] ;
37 -> 38 ;
39 [label="gini = 0.0\nsamples = 1\nvalue = [0, 1, 0, 0, 0, 0, 0, 0, 0]"] ;
38 -> 39 ;
40 [label="gini = 0.0\nsamples = 4\nvalue = [0, 0, 4, 0, 0, 0, 0, 0, 0]"] ;
38 -> 40 ;
41 [label="X[9] <= 0.272\ngini = 0.667\nsamples = 6\nvalue = [1, 1, 1, 3, 0, 0, 0, 0, 0]"] ;
37 -> 41 ;
42 [label="gini = 0.0\nsamples = 3\nvalue = [0, 0, 0, 3, 0, 0, 0, 0, 0]"] ;
41 -> 42 ;
43 [label="X[4] <= 5.1\ngini = 0.667\nsamples = 3\nvalue = [1, 1, 1, 0, 0, 0, 0, 0, 0]"] ;
41 -> 43 ;
44 [label="gini = 0.0\nsamples = 1\nvalue = [0, 0, 1, 0, 0, 0, 0, 0, 0]"] ;
43 -> 44 ;
45 [label="X[9] <= 0.711\ngini = 0.5\nsamples = 2\nvalue = [1, 1, 0, 0, 0, 0, 0, 0, 0]"] ;
43 -> 45 ;
46 [label="gini = 0.0\nsamples = 1\nvalue = [0, 1, 0, 0, 0, 0, 0, 0, 0]"] ;
45 -> 46 ;
47 [label="gini = 0.0\nsamples = 1\nvalue = [1, 0, 0, 0, 0, 0, 0, 0, 0]"] ;
45 -> 47 ;
48 [label="gini = 0.0\nsamples = 2\nvalue = [2, 0, 0, 0, 0, 0, 0, 0, 0]"] ;
36 -> 48 ;
49 [label="X[4] <= 7.7\ngini = 0.42\nsamples = 10\nvalue = [0, 0, 0, 7, 3, 0, 0, 0, 0]"] ;
35 -> 49 ;
50 [label="gini = 0.0\nsamples = 6\nvalue = [0, 0, 0, 6, 0, 0, 0, 0, 0]"] ;
49 -> 50 ;
51 [label="X[5] <= 2.1\ngini = 0.375\nsamples = 4\nvalue = [0, 0, 0, 1, 3, 0, 0, 0, 0]"] ;
49 -> 51 ;
52 [label="gini = 0.0\nsamples = 1\nvalue = [0, 0, 0, 1, 0, 0, 0, 0, 0]"] ;
51 -> 52 ;
53 [label="gini = 0.0\nsamples = 3\nvalue = [0, 0, 0, 0, 3, 0, 0, 0, 0]"] ;
51 -> 53 ;
54 [label="X[4] <= 6.85\ngini = 0.605\nsamples = 185\nvalue = [101, 55, 13, 9, 5, 0, 2, 0, 0]"] ;
2 -> 54 ;
55 [label="X[7] <= 7.275\ngini = 0.514\nsamples = 110\nvalue = [73, 22, 4, 6, 3, 0, 2, 0, 0]"] ;
54 -> 55 ;
56 [label="X[3] <= 2011.5\ngini = 0.497\nsamples = 107\nvalue = [73, 19, 4, 6, 3, 0, 2, 0, 0]"] ;
55 -> 56 ;
57 [label="X[3] <= 2000.5\ngini = 0.405\nsamples = 81\nvalue = [61, 13, 2, 2, 1, 0, 2, 0, 0]"] ;
56 -> 57 ;
58 [label="X[10] <= 1346136.719\ngini = 0.543\nsamples = 19\nvalue = [10, 8, 0, 0, 0, 0, 1, 0, 0]"] ;
57 -> 58 ;
59 [label="X[0] <= 83.5\ngini = 0.278\nsamples = 6\nvalue = [5, 0, 0, 0, 0, 0, 1, 0, 0]"] ;
58 -> 59 ;
60 [label="gini = 0.0\nsamples = 1\nvalue = [0, 0, 0, 0, 0, 0, 1, 0, 0]"] ;
59 -> 60 ;
61 [label="gini = 0.0\nsamples = 5\nvalue = [5, 0, 0, 0, 0, 0, 0, 0, 0]"] ;
59 -> 61 ;
62 [label="X[9] <= 1.461\ngini = 0.473\nsamples = 13\nvalue = [5, 8, 0, 0, 0, 0, 0, 0, 0]"] ;
58 -> 62 ;
63 [label="gini = 0.0\nsamples = 7\nvalue = [0, 7, 0, 0, 0, 0, 0, 0, 0]"] ;
62 -> 63 ;
64 [label="X[10] <= 6874032.5\ngini = 0.278\nsamples = 6\nvalue = [5, 1, 0, 0, 0, 0, 0, 0, 0]"] ;
62 -> 64 ;
65 [label="gini = 0.0\nsamples = 1\nvalue = [0, 1, 0, 0, 0, 0, 0, 0, 0]"] ;
64 -> 65 ;
66 [label="gini = 0.0\nsamples = 5\nvalue = [5, 0, 0, 0, 0, 0, 0, 0, 0]"] ;
64 -> 66 ;
67 [label="X[0] <= 118.5\ngini = 0.314\nsamples = 62\nvalue = [51, 5, 2, 2, 1, 0, 1, 0, 0]"] ;
57 -> 67 ;
68 [label="X[36] <= 0.5\ngini = 0.271\nsamples = 60\nvalue = [51, 4, 2, 1, 1, 0, 1, 0, 0]"] ;
67 -> 68 ;
69 [label="X[7] <= 7.225\ngini = 0.246\nsamples = 59\nvalue = [51, 4, 2, 0, 1, 0, 1, 0, 0]"] ;
68 -> 69 ;
70 [label="X[40] <= 0.5\ngini = 0.221\nsamples = 58\nvalue = [51, 4, 2, 0, 0, 0, 1, 0, 0]"] ;
69 -> 70 ;
71 [label="X[2] <= 125000.0\ngini = 0.157\nsamples = 48\nvalue = [44, 1, 2, 0, 0, 0, 1, 0, 0]"] ;
70 -> 71 ;
72 [label="X[2] <= 80000.0\ngini = 0.56\nsamples = 5\nvalue = [3, 0, 1, 0, 0, 0, 1, 0, 0]"] ;
71 -> 72 ;
73 [label="X[50] <= 0.5\ngini = 0.375\nsamples = 4\nvalue = [3, 0, 0, 0, 0, 0, 1, 0, 0]"] ;
72 -> 73 ;
74 [label="gini = 0.0\nsamples = 3\nvalue = [3, 0, 0, 0, 0, 0, 0, 0, 0]"] ;
73 -> 74 ;
75 [label="gini = 0.0\nsamples = 1\nvalue = [0, 0, 0, 0, 0, 0, 1, 0, 0]"] ;
73 -> 75 ;
76 [label="gini = 0.0\nsamples = 1\nvalue = [0, 0, 1, 0, 0, 0, 0, 0, 0]"] ;
72 -> 76 ;
77 [label="X[11] <= 4.5\ngini = 0.09\nsamples = 43\nvalue = [41, 1, 1, 0, 0, 0, 0, 0, 0]"] ;
71 -> 77 ;
78 [label="gini = 0.0\nsamples = 31\nvalue = [31, 0, 0, 0, 0, 0, 0, 0, 0]"] ;
77 -> 78 ;
79 [label="X[11] <= 5.5\ngini = 0.292\nsamples = 12\nvalue = [10, 1, 1, 0, 0, 0, 0, 0, 0]"] ;
77 -> 79 ;
80 [label="gini = 0.0\nsamples = 1\nvalue = [0, 1, 0, 0, 0, 0, 0, 0, 0]"] ;
79 -> 80 ;
81 [label="X[39] <= 0.5\ngini = 0.165\nsamples = 11\nvalue = [10, 0, 1, 0, 0, 0, 0, 0, 0]"] ;
79 -> 81 ;
82 [label="gini = 0.0\nsamples = 10\nvalue = [10, 0, 0, 0, 0, 0, 0, 0, 0]"] ;
81 -> 82 ;
83 [label="gini = 0.0\nsamples = 1\nvalue = [0, 0, 1, 0, 0, 0, 0, 0, 0]"] ;
81 -> 83 ;
84 [label="X[4] <= 6.4\ngini = 0.42\nsamples = 10\nvalue = [7, 3, 0, 0, 0, 0, 0, 0, 0]"] ;
70 -> 84 ;
85 [label="gini = 0.0\nsamples = 6\nvalue = [6, 0, 0, 0, 0, 0, 0, 0, 0]"] ;
84 -> 85 ;
86 [label="X[33] <= 0.5\ngini = 0.375\nsamples = 4\nvalue = [1, 3, 0, 0, 0, 0, 0, 0, 0]"] ;
84 -> 86 ;
87 [label="gini = 0.0\nsamples = 3\nvalue = [0, 3, 0, 0, 0, 0, 0, 0, 0]"] ;
86 -> 87 ;
88 [label="gini = 0.0\nsamples = 1\nvalue = [1, 0, 0, 0, 0, 0, 0, 0, 0]"] ;
86 -> 88 ;
89 [label="gini = 0.0\nsamples = 1\nvalue = [0, 0, 0, 0, 1, 0, 0, 0, 0]"] ;
69 -> 89 ;
90 [label="gini = 0.0\nsamples = 1\nvalue = [0, 0, 0, 1, 0, 0, 0, 0, 0]"] ;
68 -> 90 ;
91 [label="X[36] <= 0.5\ngini = 0.5\nsamples = 2\nvalue = [0, 1, 0, 1, 0, 0, 0, 0, 0]"] ;
67 -> 91 ;
92 [label="gini = 0.0\nsamples = 1\nvalue = [0, 0, 0, 1, 0, 0, 0, 0, 0]"] ;
91 -> 92 ;
93 [label="gini = 0.0\nsamples = 1\nvalue = [0, 1, 0, 0, 0, 0, 0, 0, 0]"] ;
91 -> 93 ;
94 [label="X[0] <= 87.5\ngini = 0.698\nsamples = 26\nvalue = [12, 6, 2, 4, 2, 0, 0, 0, 0]"] ;
56 -> 94 ;
95 [label="X[9] <= 0.339\ngini = 0.74\nsamples = 10\nvalue = [2, 1, 1, 4, 2, 0, 0, 0, 0]"] ;
94 -> 95 ;
96 [label="X[6] <= 11539147.0\ngini = 0.32\nsamples = 5\nvalue = [0, 0, 0, 4, 1, 0, 0, 0, 0]"] ;
95 -> 96 ;
97 [label="gini = 0.0\nsamples = 4\nvalue = [0, 0, 0, 4, 0, 0, 0, 0, 0]"] ;
96 -> 97 ;
98 [label="gini = 0.0\nsamples = 1\nvalue = [0, 0, 0, 0, 1, 0, 0, 0, 0]"] ;
96 -> 98 ;
99 [label="X[42] <= 0.5\ngini = 0.72\nsamples = 5\nvalue = [2, 1, 1, 0, 1, 0, 0, 0, 0]"] ;
95 -> 99 ;
100 [label="X[46] <= 0.5\ngini = 0.5\nsamples = 2\nvalue = [0, 1, 1, 0, 0, 0, 0, 0, 0]"] ;
99 -> 100 ;
101 [label="gini = 0.0\nsamples = 1\nvalue = [0, 0, 1, 0, 0, 0, 0, 0, 0]"] ;
100 -> 101 ;
102 [label="gini = 0.0\nsamples = 1\nvalue = [0, 1, 0, 0, 0, 0, 0, 0, 0]"] ;
100 -> 102 ;
103 [label="X[2] <= 1500000.0\ngini = 0.444\nsamples = 3\nvalue = [2, 0, 0, 0, 1, 0, 0, 0, 0]"] ;
99 -> 103 ;
104 [label="gini = 0.0\nsamples = 2\nvalue = [2, 0, 0, 0, 0, 0, 0, 0, 0]"] ;
103 -> 104 ;
105 [label="gini = 0.0\nsamples = 1\nvalue = [0, 0, 0, 0, 1, 0, 0, 0, 0]"] ;
103 -> 105 ;
106 [label="X[11] <= 5.5\ngini = 0.508\nsamples = 16\nvalue = [10, 5, 1, 0, 0, 0, 0, 0, 0]"] ;
94 -> 106 ;
107 [label="gini = 0.0\nsamples = 8\nvalue = [8, 0, 0, 0, 0, 0, 0, 0, 0]"] ;
106 -> 107 ;
108 [label="X[4] <= 6.05\ngini = 0.531\nsamples = 8\nvalue = [2, 5, 1, 0, 0, 0, 0, 0, 0]"] ;
106 -> 108 ;
109 [label="gini = 0.0\nsamples = 5\nvalue = [0, 5, 0, 0, 0, 0, 0, 0, 0]"] ;
108 -> 109 ;
110 [label="X[2] <= 1450000.0\ngini = 0.444\nsamples = 3\nvalue = [2, 0, 1, 0, 0, 0, 0, 0, 0]"] ;
108 -> 110 ;
111 [label="gini = 0.0\nsamples = 2\nvalue = [2, 0, 0, 0, 0, 0, 0, 0, 0]"] ;
110 -> 111 ;
112 [label="gini = 0.0\nsamples = 1\nvalue = [0, 0, 1, 0, 0, 0, 0, 0, 0]"] ;
110 -> 112 ;
113 [label="gini = 0.0\nsamples = 3\nvalue = [0, 3, 0, 0, 0, 0, 0, 0, 0]"] ;
55 -> 113 ;
114 [label="X[1] <= 0.5\ngini = 0.65\nsamples = 75\nvalue = [28, 33, 9, 3, 2, 0, 0, 0, 0]"] ;
54 -> 114 ;
115 [label="X[53] <= 0.5\ngini = 0.614\nsamples = 37\nvalue = [20, 10, 5, 0, 2, 0, 0, 0, 0]"] ;
114 -> 115 ;
116 [label="X[9] <= 2.928\ngini = 0.581\nsamples = 35\nvalue = [20, 10, 3, 0, 2, 0, 0, 0, 0]"] ;
115 -> 116 ;
117 [label="X[50] <= 0.5\ngini = 0.562\nsamples = 33\nvalue = [20, 8, 3, 0, 2, 0, 0, 0, 0]"] ;
116 -> 117 ;
118 [label="X[42] <= 0.5\ngini = 0.512\nsamples = 31\nvalue = [20, 8, 2, 0, 1, 0, 0, 0, 0]"] ;
117 -> 118 ;
119 [label="X[37] <= 0.5\ngini = 0.368\nsamples = 22\nvalue = [17, 4, 1, 0, 0, 0, 0, 0, 0]"] ;
118 -> 119 ;
120 [label="X[30] <= 0.5\ngini = 0.308\nsamples = 21\nvalue = [17, 4, 0, 0, 0, 0, 0, 0, 0]"] ;
119 -> 120 ;
121 [label="X[54] <= 0.5\ngini = 0.255\nsamples = 20\nvalue = [17, 3, 0, 0, 0, 0, 0, 0, 0]"] ;
120 -> 121 ;
122 [label="X[39] <= 0.5\ngini = 0.188\nsamples = 19\nvalue = [17, 2, 0, 0, 0, 0, 0, 0, 0]"] ;
121 -> 122 ;
123 [label="gini = 0.0\nsamples = 15\nvalue = [15, 0, 0, 0, 0, 0, 0, 0, 0]"] ;
122 -> 123 ;
124 [label="X[12] <= 0.5\ngini = 0.5\nsamples = 4\nvalue = [2, 2, 0, 0, 0, 0, 0, 0, 0]"] ;
122 -> 124 ;
125 [label="X[0] <= 97.0\ngini = 0.444\nsamples = 3\nvalue = [2, 1, 0, 0, 0, 0, 0, 0, 0]"] ;
124 -> 125 ;
126 [label="gini = 0.0\nsamples = 2\nvalue = [2, 0, 0, 0, 0, 0, 0, 0, 0]"] ;
125 -> 126 ;
127 [label="gini = 0.0\nsamples = 1\nvalue = [0, 1, 0, 0, 0, 0, 0, 0, 0]"] ;
125 -> 127 ;
128 [label="gini = 0.0\nsamples = 1\nvalue = [0, 1, 0, 0, 0, 0, 0, 0, 0]"] ;
124 -> 128 ;
129 [label="gini = 0.0\nsamples = 1\nvalue = [0, 1, 0, 0, 0, 0, 0, 0, 0]"] ;
121 -> 129 ;
130 [label="gini = 0.0\nsamples = 1\nvalue = [0, 1, 0, 0, 0, 0, 0, 0, 0]"] ;
120 -> 130 ;
131 [label="gini = 0.0\nsamples = 1\nvalue = [0, 0, 1, 0, 0, 0, 0, 0, 0]"] ;
119 -> 131 ;
132 [label="X[4] <= 7.25\ngini = 0.667\nsamples = 9\nvalue = [3, 4, 1, 0, 1, 0, 0, 0, 0]"] ;
118 -> 132 ;
133 [label="X[46] <= 0.5\ngini = 0.667\nsamples = 6\nvalue = [3, 1, 1, 0, 1, 0, 0, 0, 0]"] ;
132 -> 133 ;
134 [label="X[35] <= 0.5\ngini = 0.667\nsamples = 3\nvalue = [0, 1, 1, 0, 1, 0, 0, 0, 0]"] ;
133 -> 134 ;
135 [label="X[32] <= 0.5\ngini = 0.5\nsamples = 2\nvalue = [0, 0, 1, 0, 1, 0, 0, 0, 0]"] ;
134 -> 135 ;
136 [label="gini = 0.0\nsamples = 1\nvalue = [0, 0, 0, 0, 1, 0, 0, 0, 0]"] ;
135 -> 136 ;
137 [label="gini = 0.0\nsamples = 1\nvalue = [0, 0, 1, 0, 0, 0, 0, 0, 0]"] ;
135 -> 137 ;
138 [label="gini = 0.0\nsamples = 1\nvalue = [0, 1, 0, 0, 0, 0, 0, 0, 0]"] ;
134 -> 138 ;
139 [label="gini = 0.0\nsamples = 3\nvalue = [3, 0, 0, 0, 0, 0, 0, 0, 0]"] ;
133 -> 139 ;
140 [label="gini = 0.0\nsamples = 3\nvalue = [0, 3, 0, 0, 0, 0, 0, 0, 0]"] ;
132 -> 140 ;
141 [label="X[11] <= 2.5\ngini = 0.5\nsamples = 2\nvalue = [0, 0, 1, 0, 1, 0, 0, 0, 0]"] ;
117 -> 141 ;
142 [label="gini = 0.0\nsamples = 1\nvalue = [0, 0, 1, 0, 0, 0, 0, 0, 0]"] ;
141 -> 142 ;
143 [label="gini = 0.0\nsamples = 1\nvalue = [0, 0, 0, 0, 1, 0, 0, 0, 0]"] ;
141 -> 143 ;
144 [label="gini = 0.0\nsamples = 2\nvalue = [0, 2, 0, 0, 0, 0, 0, 0, 0]"] ;
116 -> 144 ;
145 [label="gini = 0.0\nsamples = 2\nvalue = [0, 0, 2, 0, 0, 0, 0, 0, 0]"] ;
115 -> 145 ;
146 [label="X[2] <= 52500.0\ngini = 0.572\nsamples = 38\nvalue = [8, 23, 4, 3, 0, 0, 0, 0, 0]"] ;
114 -> 146 ;
147 [label="gini = 0.0\nsamples = 3\nvalue = [3, 0, 0, 0, 0, 0, 0, 0, 0]"] ;
146 -> 147 ;
148 [label="X[8] <= 0.5\ngini = 0.527\nsamples = 35\nvalue = [5, 23, 4, 3, 0, 0, 0, 0, 0]"] ;
146 -> 148 ;
149 [label="X[0] <= 127.5\ngini = 0.425\nsamples = 31\nvalue = [4, 23, 2, 2, 0, 0, 0, 0, 0]"] ;
148 -> 149 ;
150 [label="X[5] <= 1.815\ngini = 0.354\nsamples = 29\nvalue = [3, 23, 2, 1, 0, 0, 0, 0, 0]"] ;
149 -> 150 ;
151 [label="X[2] <= 532500.0\ngini = 0.5\nsamples = 2\nvalue = [1, 0, 1, 0, 0, 0, 0, 0, 0]"] ;
150 -> 151 ;
152 [label="gini = 0.0\nsamples = 1\nvalue = [0, 0, 1, 0, 0, 0, 0, 0, 0]"] ;
151 -> 152 ;
153 [label="gini = 0.0\nsamples = 1\nvalue = [1, 0, 0, 0, 0, 0, 0, 0, 0]"] ;
151 -> 153 ;
154 [label="X[1] <= 4.5\ngini = 0.266\nsamples = 27\nvalue = [2, 23, 1, 1, 0, 0, 0, 0, 0]"] ;
150 -> 154 ;
155 [label="X[9] <= 2.5\ngini = 0.213\nsamples = 26\nvalue = [1, 23, 1, 1, 0, 0, 0, 0, 0]"] ;
154 -> 155 ;
156 [label="X[4] <= 7.55\ngini = 0.156\nsamples = 24\nvalue = [1, 22, 0, 1, 0, 0, 0, 0, 0]"] ;
155 -> 156 ;
157 [label="X[0] <= 106.5\ngini = 0.091\nsamples = 21\nvalue = [1, 20, 0, 0, 0, 0, 0, 0, 0]"] ;
156 -> 157 ;
158 [label="gini = 0.0\nsamples = 15\nvalue = [0, 15, 0, 0, 0, 0, 0, 0, 0]"] ;
157 -> 158 ;
159 [label="X[2] <= 925000.0\ngini = 0.278\nsamples = 6\nvalue = [1, 5, 0, 0, 0, 0, 0, 0, 0]"] ;
157 -> 159 ;
160 [label="gini = 0.0\nsamples = 1\nvalue = [1, 0, 0, 0, 0, 0, 0, 0, 0]"] ;
159 -> 160 ;
161 [label="gini = 0.0\nsamples = 5\nvalue = [0, 5, 0, 0, 0, 0, 0, 0, 0]"] ;
159 -> 161 ;
162 [label="X[2] <= 2125105.5\ngini = 0.444\nsamples = 3\nvalue = [0, 2, 0, 1, 0, 0, 0, 0, 0]"] ;
156 -> 162 ;
163 [label="gini = 0.0\nsamples = 2\nvalue = [0, 2, 0, 0, 0, 0, 0, 0, 0]"] ;
162 -> 163 ;
164 [label="gini = 0.0\nsamples = 1\nvalue = [0, 0, 0, 1, 0, 0, 0, 0, 0]"] ;
162 -> 164 ;
165 [label="X[0] <= 94.0\ngini = 0.5\nsamples = 2\nvalue = [0, 1, 1, 0, 0, 0, 0, 0, 0]"] ;
155 -> 165 ;
166 [label="gini = 0.0\nsamples = 1\nvalue = [0, 1, 0, 0, 0, 0, 0, 0, 0]"] ;
165 -> 166 ;
167 [label="gini = 0.0\nsamples = 1\nvalue = [0, 0, 1, 0, 0, 0, 0, 0, 0]"] ;
165 -> 167 ;
168 [label="gini = 0.0\nsamples = 1\nvalue = [1, 0, 0, 0, 0, 0, 0, 0, 0]"] ;
154 -> 168 ;
169 [label="X[11] <= 5.0\ngini = 0.5\nsamples = 2\nvalue = [1, 0, 0, 1, 0, 0, 0, 0, 0]"] ;
149 -> 169 ;
170 [label="gini = 0.0\nsamples = 1\nvalue = [1, 0, 0, 0, 0, 0, 0, 0, 0]"] ;
169 -> 170 ;
171 [label="gini = 0.0\nsamples = 1\nvalue = [0, 0, 0, 1, 0, 0, 0, 0, 0]"] ;
169 -> 171 ;
172 [label="X[7] <= 7.0\ngini = 0.625\nsamples = 4\nvalue = [1, 0, 2, 1, 0, 0, 0, 0, 0]"] ;
148 -> 172 ;
173 [label="X[5] <= 2.1\ngini = 0.5\nsamples = 2\nvalue = [1, 0, 0, 1, 0, 0, 0, 0, 0]"] ;
172 -> 173 ;
174 [label="gini = 0.0\nsamples = 1\nvalue = [1, 0, 0, 0, 0, 0, 0, 0, 0]"] ;
173 -> 174 ;
175 [label="gini = 0.0\nsamples = 1\nvalue = [0, 0, 0, 1, 0, 0, 0, 0, 0]"] ;
173 -> 175 ;
176 [label="gini = 0.0\nsamples = 2\nvalue = [0, 0, 2, 0, 0, 0, 0, 0, 0]"] ;
172 -> 176 ;
177 [label="X[2] <= 10250000.0\ngini = 0.826\nsamples = 1243\nvalue = [103, 279, 250, 286, 162, 86, 49, 16, 12]"] ;
1 -> 177 ;
178 [label="X[3] <= 1985.5\ngini = 0.799\nsamples = 469\nvalue = [66, 149, 86, 91, 35, 20, 15, 4, 3]"] ;
177 -> 178 ;
179 [label="X[3] <= 1979.5\ngini = 0.809\nsamples = 49\nvalue = [1, 2, 2, 15, 5, 12, 6, 4, 2]"] ;
178 -> 179 ;
180 [label="X[4] <= 6.95\ngini = 0.816\nsamples = 29\nvalue = [1, 2, 0, 9, 3, 2, 6, 4, 2]"] ;
179 -> 180 ;
181 [label="X[24] <= 0.5\ngini = 0.278\nsamples = 6\nvalue = [1, 0, 0, 5, 0, 0, 0, 0, 0]"] ;
180 -> 181 ;
182 [label="gini = 0.0\nsamples = 5\nvalue = [0, 0, 0, 5, 0, 0, 0, 0, 0]"] ;
181 -> 182 ;
183 [label="gini = 0.0\nsamples = 1\nvalue = [1, 0, 0, 0, 0, 0, 0, 0, 0]"] ;
181 -> 183 ;
184 [label="X[32] <= 0.5\ngini = 0.832\nsamples = 23\nvalue = [0, 2, 0, 4, 3, 2, 6, 4, 2]"] ;
180 -> 184 ;
185 [label="X[0] <= 145.5\ngini = 0.833\nsamples = 18\nvalue = [0, 2, 0, 4, 3, 2, 2, 4, 1]"] ;
184 -> 185 ;
186 [label="X[4] <= 7.15\ngini = 0.805\nsamples = 13\nvalue = [0, 2, 0, 4, 0, 2, 2, 2, 1]"] ;
185 -> 186 ;
187 [label="gini = 0.0\nsamples = 2\nvalue = [0, 2, 0, 0, 0, 0, 0, 0, 0]"] ;
186 -> 187 ;
188 [label="X[2] <= 4750000.0\ngini = 0.76\nsamples = 11\nvalue = [0, 0, 0, 4, 0, 2, 2, 2, 1]"] ;
186 -> 188 ;
189 [label="X[4] <= 8.05\ngini = 0.48\nsamples = 5\nvalue = [0, 0, 0, 3, 0, 2, 0, 0, 0]"] ;
188 -> 189 ;
190 [label="gini = 0.0\nsamples = 2\nvalue = [0, 0, 0, 0, 0, 2, 0, 0, 0]"] ;
189 -> 190 ;
191 [label="gini = 0.0\nsamples = 3\nvalue = [0, 0, 0, 3, 0, 0, 0, 0, 0]"] ;
189 -> 191 ;
192 [label="X[3] <= 1971.0\ngini = 0.722\nsamples = 6\nvalue = [0, 0, 0, 1, 0, 0, 2, 2, 1]"] ;
188 -> 192 ;
193 [label="gini = 0.0\nsamples = 2\nvalue = [0, 0, 0, 0, 0, 0, 2, 0, 0]"] ;
192 -> 193 ;
194 [label="X[2] <= 7000000.0\ngini = 0.625\nsamples = 4\nvalue = [0, 0, 0, 1, 0, 0, 0, 2, 1]"] ;
192 -> 194 ;
195 [label="gini = 0.0\nsamples = 2\nvalue = [0, 0, 0, 0, 0, 0, 0, 2, 0]"] ;
194 -> 195 ;
196 [label="X[39] <= 0.5\ngini = 0.5\nsamples = 2\nvalue = [0, 0, 0, 1, 0, 0, 0, 0, 1]"] ;
194 -> 196 ;
197 [label="gini = 0.0\nsamples = 1\nvalue = [0, 0, 0, 1, 0, 0, 0, 0, 0]"] ;
196 -> 197 ;
198 [label="gini = 0.0\nsamples = 1\nvalue = [0, 0, 0, 0, 0, 0, 0, 0, 1]"] ;
196 -> 198 ;
199 [label="X[1] <= 0.5\ngini = 0.48\nsamples = 5\nvalue = [0, 0, 0, 0, 3, 0, 0, 2, 0]"] ;
185 -> 199 ;
200 [label="gini = 0.0\nsamples = 3\nvalue = [0, 0, 0, 0, 3, 0, 0, 0, 0]"] ;
199 -> 200 ;
201 [label="gini = 0.0\nsamples = 2\nvalue = [0, 0, 0, 0, 0, 0, 0, 2, 0]"] ;
199 -> 201 ;
202 [label="X[50] <= 0.5\ngini = 0.32\nsamples = 5\nvalue = [0, 0, 0, 0, 0, 0, 4, 0, 1]"] ;
184 -> 202 ;
203 [label="gini = 0.0\nsamples = 4\nvalue = [0, 0, 0, 0, 0, 0, 4, 0, 0]"] ;
202 -> 203 ;
204 [label="gini = 0.0\nsamples = 1\nvalue = [0, 0, 0, 0, 0, 0, 0, 0, 1]"] ;
202 -> 204 ;
205 [label="X[5] <= 2.1\ngini = 0.64\nsamples = 20\nvalue = [0, 0, 2, 6, 2, 10, 0, 0, 0]"] ;
179 -> 205 ;
206 [label="X[1] <= 2.5\ngini = 0.555\nsamples = 16\nvalue = [0, 0, 2, 3, 1, 10, 0, 0, 0]"] ;
205 -> 206 ;
207 [label="X[39] <= 0.5\ngini = 0.379\nsamples = 13\nvalue = [0, 0, 1, 2, 0, 10, 0, 0, 0]"] ;
206 -> 207 ;
208 [label="X[38] <= 0.5\ngini = 0.278\nsamples = 12\nvalue = [0, 0, 0, 2, 0, 10, 0, 0, 0]"] ;
207 -> 208 ;
209 [label="X[31] <= 0.5\ngini = 0.165\nsamples = 11\nvalue = [0, 0, 0, 1, 0, 10, 0, 0, 0]"] ;
208 -> 209 ;
210 [label="gini = 0.0\nsamples = 10\nvalue = [0, 0, 0, 0, 0, 10, 0, 0, 0]"] ;
209 -> 210 ;
211 [label="gini = 0.0\nsamples = 1\nvalue = [0, 0, 0, 1, 0, 0, 0, 0, 0]"] ;
209 -> 211 ;
212 [label="gini = 0.0\nsamples = 1\nvalue = [0, 0, 0, 1, 0, 0, 0, 0, 0]"] ;
208 -> 212 ;
213 [label="gini = 0.0\nsamples = 1\nvalue = [0, 0, 1, 0, 0, 0, 0, 0, 0]"] ;
207 -> 213 ;
214 [label="X[4] <= 7.3\ngini = 0.667\nsamples = 3\nvalue = [0, 0, 1, 1, 1, 0, 0, 0, 0]"] ;
206 -> 214 ;
215 [label="gini = 0.0\nsamples = 1\nvalue = [0, 0, 1, 0, 0, 0, 0, 0, 0]"] ;
214 -> 215 ;
216 [label="X[4] <= 7.6\ngini = 0.5\nsamples = 2\nvalue = [0, 0, 0, 1, 1, 0, 0, 0, 0]"] ;
214 -> 216 ;
217 [label="gini = 0.0\nsamples = 1\nvalue = [0, 0, 0, 1, 0, 0, 0, 0, 0]"] ;
216 -> 217 ;
218 [label="gini = 0.0\nsamples = 1\nvalue = [0, 0, 0, 0, 1, 0, 0, 0, 0]"] ;
216 -> 218 ;
219 [label="X[11] <= 3.0\ngini = 0.375\nsamples = 4\nvalue = [0, 0, 0, 3, 1, 0, 0, 0, 0]"] ;
205 -> 219 ;
220 [label="gini = 0.0\nsamples = 3\nvalue = [0, 0, 0, 3, 0, 0, 0, 0, 0]"] ;
219 -> 220 ;
221 [label="gini = 0.0\nsamples = 1\nvalue = [0, 0, 0, 0, 1, 0, 0, 0, 0]"] ;
219 -> 221 ;
222 [label="X[50] <= 0.5\ngini = 0.775\nsamples = 420\nvalue = [65, 147, 84, 76, 30, 8, 9, 0, 1]"] ;
178 -> 222 ;
223 [label="X[4] <= 7.25\ngini = 0.756\nsamples = 346\nvalue = [59, 133, 62, 61, 21, 2, 7, 0, 1]"] ;
222 -> 223 ;
224 [label="X[4] <= 6.25\ngini = 0.735\nsamples = 271\nvalue = [56, 111, 48, 39, 14, 1, 1, 0, 1]"] ;
223 -> 224 ;
225 [label="X[0] <= 82.5\ngini = 0.762\nsamples = 128\nvalue = [33, 40, 28, 20, 5, 1, 1, 0, 0]"] ;
224 -> 225 ;
226 [label="X[0] <= 78.0\ngini = 0.397\nsamples = 11\nvalue = [0, 8, 3, 0, 0, 0, 0, 0, 0]"] ;
225 -> 226 ;
227 [label="X[9] <= 3.112\ngini = 0.444\nsamples = 3\nvalue = [0, 1, 2, 0, 0, 0, 0, 0, 0]"] ;
226 -> 227 ;
228 [label="gini = 0.0\nsamples = 2\nvalue = [0, 0, 2, 0, 0, 0, 0, 0, 0]"] ;
227 -> 228 ;
229 [label="gini = 0.0\nsamples = 1\nvalue = [0, 1, 0, 0, 0, 0, 0, 0, 0]"] ;
227 -> 229 ;
230 [label="X[4] <= 6.1\ngini = 0.219\nsamples = 8\nvalue = [0, 7, 1, 0, 0, 0, 0, 0, 0]"] ;
226 -> 230 ;
231 [label="gini = 0.0\nsamples = 7\nvalue = [0, 7, 0, 0, 0, 0, 0, 0, 0]"] ;
230 -> 231 ;
232 [label="gini = 0.0\nsamples = 1\nvalue = [0, 0, 1, 0, 0, 0, 0, 0, 0]"] ;
230 -> 232 ;
233 [label="X[1] <= 7.0\ngini = 0.769\nsamples = 117\nvalue = [33, 32, 25, 20, 5, 1, 1, 0, 0]"] ;
225 -> 233 ;
234 [label="X[10] <= 144852.941\ngini = 0.763\nsamples = 110\nvalue = [33, 30, 25, 15, 5, 1, 1, 0, 0]"] ;
233 -> 234 ;
235 [label="X[5] <= 2.1\ngini = 0.612\nsamples = 22\nvalue = [2, 12, 6, 2, 0, 0, 0, 0, 0]"] ;
234 -> 235 ;
236 [label="X[6] <= 6327080.5\ngini = 0.54\nsamples = 20\nvalue = [2, 12, 6, 0, 0, 0, 0, 0, 0]"] ;
235 -> 236 ;
237 [label="X[0] <= 98.0\ngini = 0.443\nsamples = 17\nvalue = [1, 12, 4, 0, 0, 0, 0, 0, 0]"] ;
236 -> 237 ;
238 [label="X[0] <= 86.5\ngini = 0.272\nsamples = 13\nvalue = [1, 11, 1, 0, 0, 0, 0, 0, 0]"] ;
237 -> 238 ;
239 [label="gini = 0.0\nsamples = 1\nvalue = [1, 0, 0, 0, 0, 0, 0, 0, 0]"] ;
238 -> 239 ;
240 [label="X[4] <= 4.25\ngini = 0.153\nsamples = 12\nvalue = [0, 11, 1, 0, 0, 0, 0, 0, 0]"] ;
238 -> 240 ;
241 [label="X[4] <= 3.55\ngini = 0.375\nsamples = 4\nvalue = [0, 3, 1, 0, 0, 0, 0, 0, 0]"] ;
240 -> 241 ;
242 [label="gini = 0.0\nsamples = 3\nvalue = [0, 3, 0, 0, 0, 0, 0, 0, 0]"] ;
241 -> 242 ;
243 [label="gini = 0.0\nsamples = 1\nvalue = [0, 0, 1, 0, 0, 0, 0, 0, 0]"] ;
241 -> 243 ;
244 [label="gini = 0.0\nsamples = 8\nvalue = [0, 8, 0, 0, 0, 0, 0, 0, 0]"] ;
240 -> 244 ;
245 [label="X[8] <= 0.5\ngini = 0.375\nsamples = 4\nvalue = [0, 1, 3, 0, 0, 0, 0, 0, 0]"] ;
237 -> 245 ;
246 [label="gini = 0.0\nsamples = 3\nvalue = [0, 0, 3, 0, 0, 0, 0, 0, 0]"] ;
245 -> 246 ;
247 [label="gini = 0.0\nsamples = 1\nvalue = [0, 1, 0, 0, 0, 0, 0, 0, 0]"] ;
245 -> 247 ;
248 [label="X[8] <= 4.0\ngini = 0.444\nsamples = 3\nvalue = [1, 0, 2, 0, 0, 0, 0, 0, 0]"] ;
236 -> 248 ;
249 [label="gini = 0.0\nsamples = 2\nvalue = [0, 0, 2, 0, 0, 0, 0, 0, 0]"] ;
248 -> 249 ;
250 [label="gini = 0.0\nsamples = 1\nvalue = [1, 0, 0, 0, 0, 0, 0, 0, 0]"] ;
248 -> 250 ;
251 [label="gini = 0.0\nsamples = 2\nvalue = [0, 0, 0, 2, 0, 0, 0, 0, 0]"] ;
235 -> 251 ;
252 [label="X[2] <= 8100000.0\ngini = 0.762\nsamples = 88\nvalue = [31, 18, 19, 13, 5, 1, 1, 0, 0]"] ;
234 -> 252 ;
253 [label="X[9] <= 3.685\ngini = 0.737\nsamples = 60\nvalue = [21, 10, 19, 6, 3, 0, 1, 0, 0]"] ;
252 -> 253 ;
254 [label="X[9] <= 0.6\ngini = 0.733\nsamples = 43\nvalue = [11, 7, 17, 5, 3, 0, 0, 0, 0]"] ;
253 -> 254 ;
255 [label="gini = 0.0\nsamples = 2\nvalue = [0, 0, 0, 2, 0, 0, 0, 0, 0]"] ;
254 -> 255 ;
256 [label="X[39] <= 0.5\ngini = 0.716\nsamples = 41\nvalue = [11, 7, 17, 3, 3, 0, 0, 0, 0]"] ;
254 -> 256 ;
257 [label="X[9] <= 0.961\ngini = 0.72\nsamples = 34\nvalue = [11, 7, 12, 1, 3, 0, 0, 0, 0]"] ;
256 -> 257 ;
258 [label="X[1] <= 0.5\ngini = 0.531\nsamples = 8\nvalue = [0, 1, 5, 0, 2, 0, 0, 0, 0]"] ;
257 -> 258 ;
259 [label="gini = 0.0\nsamples = 2\nvalue = [0, 0, 0, 0, 2, 0, 0, 0, 0]"] ;
258 -> 259 ;
260 [label="X[7] <= 2.55\ngini = 0.278\nsamples = 6\nvalue = [0, 1, 5, 0, 0, 0, 0, 0, 0]"] ;
258 -> 260 ;
261 [label="X[31] <= 0.5\ngini = 0.5\nsamples = 2\nvalue = [0, 1, 1, 0, 0, 0, 0, 0, 0]"] ;
260 -> 261 ;
262 [label="gini = 0.0\nsamples = 1\nvalue = [0, 1, 0, 0, 0, 0, 0, 0, 0]"] ;
261 -> 262 ;
263 [label="gini = 0.0\nsamples = 1\nvalue = [0, 0, 1, 0, 0, 0, 0, 0, 0]"] ;
261 -> 263 ;
264 [label="gini = 0.0\nsamples = 4\nvalue = [0, 0, 4, 0, 0, 0, 0, 0, 0]"] ;
260 -> 264 ;
265 [label="X[9] <= 1.58\ngini = 0.692\nsamples = 26\nvalue = [11, 6, 7, 1, 1, 0, 0, 0, 0]"] ;
257 -> 265 ;
266 [label="X[43] <= 0.5\ngini = 0.417\nsamples = 12\nvalue = [9, 1, 1, 1, 0, 0, 0, 0, 0]"] ;
265 -> 266 ;
267 [label="X[2] <= 7100000.0\ngini = 0.314\nsamples = 11\nvalue = [9, 1, 1, 0, 0, 0, 0, 0, 0]"] ;
266 -> 267 ;
268 [label="X[4] <= 3.15\ngini = 0.18\nsamples = 10\nvalue = [9, 1, 0, 0, 0, 0, 0, 0, 0]"] ;
267 -> 268 ;
269 [label="gini = 0.0\nsamples = 1\nvalue = [0, 1, 0, 0, 0, 0, 0, 0, 0]"] ;
268 -> 269 ;
270 [label="gini = 0.0\nsamples = 9\nvalue = [9, 0, 0, 0, 0, 0, 0, 0, 0]"] ;
268 -> 270 ;
271 [label="gini = 0.0\nsamples = 1\nvalue = [0, 0, 1, 0, 0, 0, 0, 0, 0]"] ;
267 -> 271 ;
272 [label="gini = 0.0\nsamples = 1\nvalue = [0, 0, 0, 1, 0, 0, 0, 0, 0]"] ;
266 -> 272 ;
273 [label="X[9] <= 2.161\ngini = 0.663\nsamples = 14\nvalue = [2, 5, 6, 0, 1, 0, 0, 0, 0]"] ;
265 -> 273 ;
274 [label="X[42] <= 0.5\ngini = 0.375\nsamples = 4\nvalue = [1, 3, 0, 0, 0, 0, 0, 0, 0]"] ;
273 -> 274 ;
275 [label="gini = 0.0\nsamples = 1\nvalue = [1, 0, 0, 0, 0, 0, 0, 0, 0]"] ;
274 -> 275 ;
276 [label="gini = 0.0\nsamples = 3\nvalue = [0, 3, 0, 0, 0, 0, 0, 0, 0]"] ;
274 -> 276 ;
277 [label="X[0] <= 103.0\ngini = 0.58\nsamples = 10\nvalue = [1, 2, 6, 0, 1, 0, 0, 0, 0]"] ;
273 -> 277 ;
278 [label="X[17] <= 0.5\ngini = 0.406\nsamples = 8\nvalue = [1, 1, 6, 0, 0, 0, 0, 0, 0]"] ;
277 -> 278 ;
279 [label="gini = 0.0\nsamples = 1\nvalue = [0, 1, 0, 0, 0, 0, 0, 0, 0]"] ;
278 -> 279 ;
280 [label="X[9] <= 3.319\ngini = 0.245\nsamples = 7\nvalue = [1, 0, 6, 0, 0, 0, 0, 0, 0]"] ;
278 -> 280 ;
281 [label="gini = 0.0\nsamples = 5\nvalue = [0, 0, 5, 0, 0, 0, 0, 0, 0]"] ;
280 -> 281 ;
282 [label="X[4] <= 6.05\ngini = 0.5\nsamples = 2\nvalue = [1, 0, 1, 0, 0, 0, 0, 0, 0]"] ;
280 -> 282 ;
283 [label="gini = 0.0\nsamples = 1\nvalue = [1, 0, 0, 0, 0, 0, 0, 0, 0]"] ;
282 -> 283 ;
284 [label="gini = 0.0\nsamples = 1\nvalue = [0, 0, 1, 0, 0, 0, 0, 0, 0]"] ;
282 -> 284 ;
285 [label="X[8] <= 1.5\ngini = 0.5\nsamples = 2\nvalue = [0, 1, 0, 0, 1, 0, 0, 0, 0]"] ;
277 -> 285 ;
286 [label="gini = 0.0\nsamples = 1\nvalue = [0, 0, 0, 0, 1, 0, 0, 0, 0]"] ;
285 -> 286 ;
287 [label="gini = 0.0\nsamples = 1\nvalue = [0, 1, 0, 0, 0, 0, 0, 0, 0]"] ;
285 -> 287 ;
288 [label="X[46] <= 0.5\ngini = 0.408\nsamples = 7\nvalue = [0, 0, 5, 2, 0, 0, 0, 0, 0]"] ;
256 -> 288 ;
289 [label="X[36] <= 0.5\ngini = 0.444\nsamples = 3\nvalue = [0, 0, 1, 2, 0, 0, 0, 0, 0]"] ;
288 -> 289 ;
290 [label="gini = 0.0\nsamples = 2\nvalue = [0, 0, 0, 2, 0, 0, 0, 0, 0]"] ;
289 -> 290 ;
291 [label="gini = 0.0\nsamples = 1\nvalue = [0, 0, 1, 0, 0, 0, 0, 0, 0]"] ;
289 -> 291 ;
292 [label="gini = 0.0\nsamples = 4\nvalue = [0, 0, 4, 0, 0, 0, 0, 0, 0]"] ;
288 -> 292 ;
293 [label="X[30] <= 0.5\ngini = 0.602\nsamples = 17\nvalue = [10, 3, 2, 1, 0, 0, 1, 0, 0]"] ;
253 -> 293 ;
294 [label="X[6] <= 5225109.0\ngini = 0.507\nsamples = 15\nvalue = [10, 3, 0, 1, 0, 0, 1, 0, 0]"] ;
293 -> 294 ;
295 [label="X[4] <= 3.35\ngini = 0.379\nsamples = 13\nvalue = [10, 2, 0, 1, 0, 0, 0, 0, 0]"] ;
294 -> 295 ;
296 [label="gini = 0.0\nsamples = 1\nvalue = [0, 1, 0, 0, 0, 0, 0, 0, 0]"] ;
295 -> 296 ;
297 [label="X[1] <= 4.5\ngini = 0.292\nsamples = 12\nvalue = [10, 1, 0, 1, 0, 0, 0, 0, 0]"] ;
295 -> 297 ;
298 [label="X[11] <= 7.5\ngini = 0.165\nsamples = 11\nvalue = [10, 0, 0, 1, 0, 0, 0, 0, 0]"] ;
297 -> 298 ;
299 [label="X[0] <= 93.5\ngini = 0.5\nsamples = 2\nvalue = [1, 0, 0, 1, 0, 0, 0, 0, 0]"] ;
298 -> 299 ;
300 [label="gini = 0.0\nsamples = 1\nvalue = [0, 0, 0, 1, 0, 0, 0, 0, 0]"] ;
299 -> 300 ;
301 [label="gini = 0.0\nsamples = 1\nvalue = [1, 0, 0, 0, 0, 0, 0, 0, 0]"] ;
299 -> 301 ;
302 [label="gini = 0.0\nsamples = 9\nvalue = [9, 0, 0, 0, 0, 0, 0, 0, 0]"] ;
298 -> 302 ;
303 [label="gini = 0.0\nsamples = 1\nvalue = [0, 1, 0, 0, 0, 0, 0, 0, 0]"] ;
297 -> 303 ;
304 [label="X[46] <= 0.5\ngini = 0.5\nsamples = 2\nvalue = [0, 1, 0, 0, 0, 0, 1, 0, 0]"] ;
294 -> 304 ;
305 [label="gini = 0.0\nsamples = 1\nvalue = [0, 1, 0, 0, 0, 0, 0, 0, 0]"] ;
304 -> 305 ;
306 [label="gini = 0.0\nsamples = 1\nvalue = [0, 0, 0, 0, 0, 0, 1, 0, 0]"] ;
304 -> 306 ;
307 [label="gini = 0.0\nsamples = 2\nvalue = [0, 0, 2, 0, 0, 0, 0, 0, 0]"] ;
293 -> 307 ;
308 [label="X[9] <= 2.003\ngini = 0.722\nsamples = 28\nvalue = [10, 8, 0, 7, 2, 1, 0, 0, 0]"] ;
252 -> 308 ;
309 [label="X[0] <= 97.5\ngini = 0.46\nsamples = 10\nvalue = [7, 0, 0, 2, 1, 0, 0, 0, 0]"] ;
308 -> 309 ;
310 [label="gini = 0.0\nsamples = 6\nvalue = [6, 0, 0, 0, 0, 0, 0, 0, 0]"] ;
309 -> 310 ;
311 [label="X[5] <= 1.815\ngini = 0.625\nsamples = 4\nvalue = [1, 0, 0, 2, 1, 0, 0, 0, 0]"] ;
309 -> 311 ;
312 [label="gini = 0.0\nsamples = 1\nvalue = [1, 0, 0, 0, 0, 0, 0, 0, 0]"] ;
311 -> 312 ;
313 [label="X[11] <= 2.5\ngini = 0.444\nsamples = 3\nvalue = [0, 0, 0, 2, 1, 0, 0, 0, 0]"] ;
311 -> 313 ;
314 [label="gini = 0.0\nsamples = 2\nvalue = [0, 0, 0, 2, 0, 0, 0, 0, 0]"] ;
313 -> 314 ;
315 [label="gini = 0.0\nsamples = 1\nvalue = [0, 0, 0, 0, 1, 0, 0, 0, 0]"] ;
313 -> 315 ;
316 [label="X[0] <= 93.0\ngini = 0.691\nsamples = 18\nvalue = [3, 8, 0, 5, 1, 1, 0, 0, 0]"] ;
308 -> 316 ;
317 [label="X[9] <= 2.136\ngini = 0.48\nsamples = 5\nvalue = [2, 0, 0, 3, 0, 0, 0, 0, 0]"] ;
316 -> 317 ;
318 [label="gini = 0.0\nsamples = 2\nvalue = [0, 0, 0, 2, 0, 0, 0, 0, 0]"] ;
317 -> 318 ;
319 [label="X[4] <= 5.8\ngini = 0.444\nsamples = 3\nvalue = [2, 0, 0, 1, 0, 0, 0, 0, 0]"] ;
317 -> 319 ;
320 [label="gini = 0.0\nsamples = 2\nvalue = [2, 0, 0, 0, 0, 0, 0, 0, 0]"] ;
319 -> 320 ;
321 [label="gini = 0.0\nsamples = 1\nvalue = [0, 0, 0, 1, 0, 0, 0, 0, 0]"] ;
319 -> 321 ;
322 [label="X[39] <= 0.5\ngini = 0.58\nsamples = 13\nvalue = [1, 8, 0, 2, 1, 1, 0, 0, 0]"] ;
316 -> 322 ;
323 [label="X[3] <= 1999.5\ngini = 0.446\nsamples = 11\nvalue = [1, 8, 0, 0, 1, 1, 0, 0, 0]"] ;
322 -> 323 ;
324 [label="gini = 0.0\nsamples = 1\nvalue = [0, 0, 0, 0, 1, 0, 0, 0, 0]"] ;
323 -> 324 ;
325 [label="X[0] <= 116.5\ngini = 0.34\nsamples = 10\nvalue = [1, 8, 0, 0, 0, 1, 0, 0, 0]"] ;
323 -> 325 ;
326 [label="X[48] <= 0.5\ngini = 0.198\nsamples = 9\nvalue = [0, 8, 0, 0, 0, 1, 0, 0, 0]"] ;
325 -> 326 ;
327 [label="gini = 0.0\nsamples = 7\nvalue = [0, 7, 0, 0, 0, 0, 0, 0, 0]"] ;
326 -> 327 ;
328 [label="X[2] <= 9500000.0\ngini = 0.5\nsamples = 2\nvalue = [0, 1, 0, 0, 0, 1, 0, 0, 0]"] ;
326 -> 328 ;
329 [label="gini = 0.0\nsamples = 1\nvalue = [0, 1, 0, 0, 0, 0, 0, 0, 0]"] ;
328 -> 329 ;
330 [label="gini = 0.0\nsamples = 1\nvalue = [0, 0, 0, 0, 0, 1, 0, 0, 0]"] ;
328 -> 330 ;
331 [label="gini = 0.0\nsamples = 1\nvalue = [1, 0, 0, 0, 0, 0, 0, 0, 0]"] ;
325 -> 331 ;
332 [label="gini = 0.0\nsamples = 2\nvalue = [0, 0, 0, 2, 0, 0, 0, 0, 0]"] ;
322 -> 332 ;
333 [label="X[0] <= 95.0\ngini = 0.408\nsamples = 7\nvalue = [0, 2, 0, 5, 0, 0, 0, 0, 0]"] ;
233 -> 333 ;
334 [label="gini = 0.0\nsamples = 2\nvalue = [0, 2, 0, 0, 0, 0, 0, 0, 0]"] ;
333 -> 334 ;
335 [label="gini = 0.0\nsamples = 5\nvalue = [0, 0, 0, 5, 0, 0, 0, 0, 0]"] ;
333 -> 335 ;
336 [label="X[2] <= 7250000.0\ngini = 0.686\nsamples = 143\nvalue = [23, 71, 20, 19, 9, 0, 0, 0, 1]"] ;
224 -> 336 ;
337 [label="X[11] <= 10.5\ngini = 0.605\nsamples = 87\nvalue = [15, 51, 5, 11, 4, 0, 0, 0, 1]"] ;
336 -> 337 ;
338 [label="X[46] <= 0.5\ngini = 0.538\nsamples = 70\nvalue = [6, 46, 4, 9, 4, 0, 0, 0, 1]"] ;
337 -> 338 ;
339 [label="X[51] <= 0.5\ngini = 0.8\nsamples = 15\nvalue = [1, 4, 3, 3, 3, 0, 0, 0, 1]"] ;
338 -> 339 ;
340 [label="X[1] <= 0.5\ngini = 0.781\nsamples = 13\nvalue = [1, 4, 3, 3, 1, 0, 0, 0, 1]"] ;
339 -> 340 ;
341 [label="X[0] <= 101.5\ngini = 0.56\nsamples = 5\nvalue = [0, 0, 1, 3, 1, 0, 0, 0, 0]"] ;
340 -> 341 ;
342 [label="X[54] <= 0.5\ngini = 0.5\nsamples = 2\nvalue = [0, 0, 1, 0, 1, 0, 0, 0, 0]"] ;
341 -> 342 ;
343 [label="gini = 0.0\nsamples = 1\nvalue = [0, 0, 0, 0, 1, 0, 0, 0, 0]"] ;
342 -> 343 ;
344 [label="gini = 0.0\nsamples = 1\nvalue = [0, 0, 1, 0, 0, 0, 0, 0, 0]"] ;
342 -> 344 ;
345 [label="gini = 0.0\nsamples = 3\nvalue = [0, 0, 0, 3, 0, 0, 0, 0, 0]"] ;
341 -> 345 ;
346 [label="X[8] <= 0.5\ngini = 0.656\nsamples = 8\nvalue = [1, 4, 2, 0, 0, 0, 0, 0, 1]"] ;
340 -> 346 ;
347 [label="X[9] <= 0.731\ngini = 0.72\nsamples = 5\nvalue = [1, 1, 2, 0, 0, 0, 0, 0, 1]"] ;
346 -> 347 ;
348 [label="X[37] <= 0.5\ngini = 0.667\nsamples = 3\nvalue = [1, 1, 0, 0, 0, 0, 0, 0, 1]"] ;
347 -> 348 ;
349 [label="X[1] <= 5.5\ngini = 0.5\nsamples = 2\nvalue = [1, 0, 0, 0, 0, 0, 0, 0, 1]"] ;
348 -> 349 ;
350 [label="gini = 0.0\nsamples = 1\nvalue = [0, 0, 0, 0, 0, 0, 0, 0, 1]"] ;
349 -> 350 ;
351 [label="gini = 0.0\nsamples = 1\nvalue = [1, 0, 0, 0, 0, 0, 0, 0, 0]"] ;
349 -> 351 ;
352 [label="gini = 0.0\nsamples = 1\nvalue = [0, 1, 0, 0, 0, 0, 0, 0, 0]"] ;
348 -> 352 ;
353 [label="gini = 0.0\nsamples = 2\nvalue = [0, 0, 2, 0, 0, 0, 0, 0, 0]"] ;
347 -> 353 ;
354 [label="gini = 0.0\nsamples = 3\nvalue = [0, 3, 0, 0, 0, 0, 0, 0, 0]"] ;
346 -> 354 ;
355 [label="gini = 0.0\nsamples = 2\nvalue = [0, 0, 0, 0, 2, 0, 0, 0, 0]"] ;
339 -> 355 ;
356 [label="X[3] <= 1988.0\ngini = 0.396\nsamples = 55\nvalue = [5, 42, 1, 6, 1, 0, 0, 0, 0]"] ;
338 -> 356 ;
357 [label="gini = 0.0\nsamples = 1\nvalue = [0, 0, 0, 0, 1, 0, 0, 0, 0]"] ;
356 -> 357 ;
358 [label="X[5] <= 1.515\ngini = 0.374\nsamples = 54\nvalue = [5, 42, 1, 6, 0, 0, 0, 0, 0]"] ;
356 -> 358 ;
359 [label="gini = 0.0\nsamples = 1\nvalue = [0, 0, 0, 1, 0, 0, 0, 0, 0]"] ;
358 -> 359 ;
360 [label="X[0] <= 105.5\ngini = 0.354\nsamples = 53\nvalue = [5, 42, 1, 5, 0, 0, 0, 0, 0]"] ;
358 -> 360 ;
361 [label="X[39] <= 0.5\ngini = 0.264\nsamples = 33\nvalue = [4, 28, 1, 0, 0, 0, 0, 0, 0]"] ;
360 -> 361 ;
362 [label="X[0] <= 98.0\ngini = 0.19\nsamples = 29\nvalue = [2, 26, 1, 0, 0, 0, 0, 0, 0]"] ;
361 -> 362 ;
363 [label="X[9] <= 1.386\ngini = 0.357\nsamples = 14\nvalue = [2, 11, 1, 0, 0, 0, 0, 0, 0]"] ;
362 -> 363 ;
364 [label="gini = 0.0\nsamples = 7\nvalue = [0, 7, 0, 0, 0, 0, 0, 0, 0]"] ;
363 -> 364 ;
365 [label="X[11] <= 6.0\ngini = 0.571\nsamples = 7\nvalue = [2, 4, 1, 0, 0, 0, 0, 0, 0]"] ;
363 -> 365 ;
366 [label="X[9] <= 1.958\ngini = 0.444\nsamples = 3\nvalue = [2, 0, 1, 0, 0, 0, 0, 0, 0]"] ;
365 -> 366 ;
367 [label="gini = 0.0\nsamples = 2\nvalue = [2, 0, 0, 0, 0, 0, 0, 0, 0]"] ;
366 -> 367 ;
368 [label="gini = 0.0\nsamples = 1\nvalue = [0, 0, 1, 0, 0, 0, 0, 0, 0]"] ;
366 -> 368 ;
369 [label="gini = 0.0\nsamples = 4\nvalue = [0, 4, 0, 0, 0, 0, 0, 0, 0]"] ;
365 -> 369 ;
370 [label="gini = 0.0\nsamples = 15\nvalue = [0, 15, 0, 0, 0, 0, 0, 0, 0]"] ;
362 -> 370 ;
371 [label="X[10] <= 19622118.0\ngini = 0.5\nsamples = 4\nvalue = [2, 2, 0, 0, 0, 0, 0, 0, 0]"] ;
361 -> 371 ;
372 [label="gini = 0.0\nsamples = 2\nvalue = [0, 2, 0, 0, 0, 0, 0, 0, 0]"] ;
371 -> 372 ;
373 [label="gini = 0.0\nsamples = 2\nvalue = [2, 0, 0, 0, 0, 0, 0, 0, 0]"] ;
371 -> 373 ;
374 [label="X[0] <= 107.0\ngini = 0.445\nsamples = 20\nvalue = [1, 14, 0, 5, 0, 0, 0, 0, 0]"] ;
360 -> 374 ;
375 [label="X[8] <= 0.5\ngini = 0.48\nsamples = 5\nvalue = [0, 2, 0, 3, 0, 0, 0, 0, 0]"] ;
374 -> 375 ;
376 [label="gini = 0.0\nsamples = 3\nvalue = [0, 0, 0, 3, 0, 0, 0, 0, 0]"] ;
375 -> 376 ;
377 [label="gini = 0.0\nsamples = 2\nvalue = [0, 2, 0, 0, 0, 0, 0, 0, 0]"] ;
375 -> 377 ;
378 [label="X[10] <= 36425840.0\ngini = 0.338\nsamples = 15\nvalue = [1, 12, 0, 2, 0, 0, 0, 0, 0]"] ;
374 -> 378 ;
379 [label="X[3] <= 1997.5\ngini = 0.255\nsamples = 14\nvalue = [1, 12, 0, 1, 0, 0, 0, 0, 0]"] ;
378 -> 379 ;
380 [label="X[4] <= 6.85\ngini = 0.56\nsamples = 5\nvalue = [1, 3, 0, 1, 0, 0, 0, 0, 0]"] ;
379 -> 380 ;
381 [label="gini = 0.0\nsamples = 1\nvalue = [1, 0, 0, 0, 0, 0, 0, 0, 0]"] ;
380 -> 381 ;
382 [label="X[4] <= 7.15\ngini = 0.375\nsamples = 4\nvalue = [0, 3, 0, 1, 0, 0, 0, 0, 0]"] ;
380 -> 382 ;
383 [label="gini = 0.0\nsamples = 3\nvalue = [0, 3, 0, 0, 0, 0, 0, 0, 0]"] ;
382 -> 383 ;
384 [label="gini = 0.0\nsamples = 1\nvalue = [0, 0, 0, 1, 0, 0, 0, 0, 0]"] ;
382 -> 384 ;
385 [label="gini = 0.0\nsamples = 9\nvalue = [0, 9, 0, 0, 0, 0, 0, 0, 0]"] ;
379 -> 385 ;
386 [label="gini = 0.0\nsamples = 1\nvalue = [0, 0, 0, 1, 0, 0, 0, 0, 0]"] ;
378 -> 386 ;
387 [label="X[11] <= 27.5\ngini = 0.616\nsamples = 17\nvalue = [9, 5, 1, 2, 0, 0, 0, 0, 0]"] ;
337 -> 387 ;
388 [label="X[0] <= 100.0\ngini = 0.375\nsamples = 12\nvalue = [9, 3, 0, 0, 0, 0, 0, 0, 0]"] ;
387 -> 388 ;
389 [label="X[1] <= 1.5\ngini = 0.5\nsamples = 6\nvalue = [3, 3, 0, 0, 0, 0, 0, 0, 0]"] ;
388 -> 389 ;
390 [label="gini = 0.0\nsamples = 2\nvalue = [0, 2, 0, 0, 0, 0, 0, 0, 0]"] ;
389 -> 390 ;
391 [label="X[3] <= 2007.0\ngini = 0.375\nsamples = 4\nvalue = [3, 1, 0, 0, 0, 0, 0, 0, 0]"] ;
389 -> 391 ;
392 [label="gini = 0.0\nsamples = 3\nvalue = [3, 0, 0, 0, 0, 0, 0, 0, 0]"] ;
391 -> 392 ;
393 [label="gini = 0.0\nsamples = 1\nvalue = [0, 1, 0, 0, 0, 0, 0, 0, 0]"] ;
391 -> 393 ;
394 [label="gini = 0.0\nsamples = 6\nvalue = [6, 0, 0, 0, 0, 0, 0, 0, 0]"] ;
388 -> 394 ;
395 [label="X[0] <= 93.5\ngini = 0.64\nsamples = 5\nvalue = [0, 2, 1, 2, 0, 0, 0, 0, 0]"] ;
387 -> 395 ;
396 [label="gini = 0.0\nsamples = 2\nvalue = [0, 0, 0, 2, 0, 0, 0, 0, 0]"] ;
395 -> 396 ;
397 [label="X[2] <= 5500000.0\ngini = 0.444\nsamples = 3\nvalue = [0, 2, 1, 0, 0, 0, 0, 0, 0]"] ;
395 -> 397 ;
398 [label="gini = 0.0\nsamples = 2\nvalue = [0, 2, 0, 0, 0, 0, 0, 0, 0]"] ;
397 -> 398 ;
399 [label="gini = 0.0\nsamples = 1\nvalue = [0, 0, 1, 0, 0, 0, 0, 0, 0]"] ;
397 -> 399 ;
400 [label="X[1] <= 3.5\ngini = 0.752\nsamples = 56\nvalue = [8, 20, 15, 8, 5, 0, 0, 0, 0]"] ;
336 -> 400 ;
401 [label="X[9] <= 3.308\ngini = 0.698\nsamples = 45\nvalue = [7, 18, 15, 3, 2, 0, 0, 0, 0]"] ;
400 -> 401 ;
402 [label="X[9] <= 1.422\ngini = 0.708\nsamples = 31\nvalue = [6, 14, 6, 3, 2, 0, 0, 0, 0]"] ;
401 -> 402 ;
403 [label="X[9] <= 0.206\ngini = 0.54\nsamples = 10\nvalue = [1, 3, 6, 0, 0, 0, 0, 0, 0]"] ;
402 -> 403 ;
404 [label="X[5] <= 2.1\ngini = 0.56\nsamples = 5\nvalue = [1, 3, 1, 0, 0, 0, 0, 0, 0]"] ;
403 -> 404 ;
405 [label="gini = 0.0\nsamples = 3\nvalue = [0, 3, 0, 0, 0, 0, 0, 0, 0]"] ;
404 -> 405 ;
406 [label="X[2] <= 9000000.0\ngini = 0.5\nsamples = 2\nvalue = [1, 0, 1, 0, 0, 0, 0, 0, 0]"] ;
404 -> 406 ;
407 [label="gini = 0.0\nsamples = 1\nvalue = [1, 0, 0, 0, 0, 0, 0, 0, 0]"] ;
406 -> 407 ;
408 [label="gini = 0.0\nsamples = 1\nvalue = [0, 0, 1, 0, 0, 0, 0, 0, 0]"] ;
406 -> 408 ;
409 [label="gini = 0.0\nsamples = 5\nvalue = [0, 0, 5, 0, 0, 0, 0, 0, 0]"] ;
403 -> 409 ;
410 [label="X[11] <= 4.5\ngini = 0.639\nsamples = 21\nvalue = [5, 11, 0, 3, 2, 0, 0, 0, 0]"] ;
402 -> 410 ;
411 [label="X[54] <= 0.5\ngini = 0.375\nsamples = 8\nvalue = [0, 6, 0, 2, 0, 0, 0, 0, 0]"] ;
410 -> 411 ;
412 [label="gini = 0.0\nsamples = 6\nvalue = [0, 6, 0, 0, 0, 0, 0, 0, 0]"] ;
411 -> 412 ;
413 [label="gini = 0.0\nsamples = 2\nvalue = [0, 0, 0, 2, 0, 0, 0, 0, 0]"] ;
411 -> 413 ;
414 [label="X[11] <= 8.0\ngini = 0.675\nsamples = 13\nvalue = [5, 5, 0, 1, 2, 0, 0, 0, 0]"] ;
410 -> 414 ;
415 [label="X[3] <= 2012.0\ngini = 0.449\nsamples = 7\nvalue = [5, 0, 0, 1, 1, 0, 0, 0, 0]"] ;
414 -> 415 ;
416 [label="X[46] <= 0.5\ngini = 0.278\nsamples = 6\nvalue = [5, 0, 0, 0, 1, 0, 0, 0, 0]"] ;
415 -> 416 ;
417 [label="gini = 0.0\nsamples = 1\nvalue = [0, 0, 0, 0, 1, 0, 0, 0, 0]"] ;
416 -> 417 ;
418 [label="gini = 0.0\nsamples = 5\nvalue = [5, 0, 0, 0, 0, 0, 0, 0, 0]"] ;
416 -> 418 ;
419 [label="gini = 0.0\nsamples = 1\nvalue = [0, 0, 0, 1, 0, 0, 0, 0, 0]"] ;
415 -> 419 ;
420 [label="X[9] <= 2.969\ngini = 0.278\nsamples = 6\nvalue = [0, 5, 0, 0, 1, 0, 0, 0, 0]"] ;
414 -> 420 ;
421 [label="gini = 0.0\nsamples = 5\nvalue = [0, 5, 0, 0, 0, 0, 0, 0, 0]"] ;
420 -> 421 ;
422 [label="gini = 0.0\nsamples = 1\nvalue = [0, 0, 0, 0, 1, 0, 0, 0, 0]"] ;
420 -> 422 ;
423 [label="X[11] <= 12.5\ngini = 0.5\nsamples = 14\nvalue = [1, 4, 9, 0, 0, 0, 0, 0, 0]"] ;
401 -> 423 ;
424 [label="X[10] <= 7349137.5\ngini = 0.198\nsamples = 9\nvalue = [1, 0, 8, 0, 0, 0, 0, 0, 0]"] ;
423 -> 424 ;
425 [label="gini = 0.0\nsamples = 1\nvalue = [1, 0, 0, 0, 0, 0, 0, 0, 0]"] ;
424 -> 425 ;
426 [label="gini = 0.0\nsamples = 8\nvalue = [0, 0, 8, 0, 0, 0, 0, 0, 0]"] ;
424 -> 426 ;
427 [label="X[6] <= 35981109.0\ngini = 0.32\nsamples = 5\nvalue = [0, 4, 1, 0, 0, 0, 0, 0, 0]"] ;
423 -> 427 ;
428 [label="gini = 0.0\nsamples = 4\nvalue = [0, 4, 0, 0, 0, 0, 0, 0, 0]"] ;
427 -> 428 ;
429 [label="gini = 0.0\nsamples = 1\nvalue = [0, 0, 1, 0, 0, 0, 0, 0, 0]"] ;
427 -> 429 ;
430 [label="X[3] <= 1997.5\ngini = 0.678\nsamples = 11\nvalue = [1, 2, 0, 5, 3, 0, 0, 0, 0]"] ;
400 -> 430 ;
431 [label="X[42] <= 0.5\ngini = 0.375\nsamples = 4\nvalue = [0, 0, 0, 1, 3, 0, 0, 0, 0]"] ;
430 -> 431 ;
432 [label="gini = 0.0\nsamples = 1\nvalue = [0, 0, 0, 1, 0, 0, 0, 0, 0]"] ;
431 -> 432 ;
433 [label="gini = 0.0\nsamples = 3\nvalue = [0, 0, 0, 0, 3, 0, 0, 0, 0]"] ;
431 -> 433 ;
434 [label="X[32] <= 0.5\ngini = 0.571\nsamples = 7\nvalue = [1, 2, 0, 4, 0, 0, 0, 0, 0]"] ;
430 -> 434 ;
435 [label="gini = 0.0\nsamples = 3\nvalue = [0, 0, 0, 3, 0, 0, 0, 0, 0]"] ;
434 -> 435 ;
436 [label="X[5] <= 2.1\ngini = 0.625\nsamples = 4\nvalue = [1, 2, 0, 1, 0, 0, 0, 0, 0]"] ;
434 -> 436 ;
437 [label="X[1] <= 5.5\ngini = 0.444\nsamples = 3\nvalue = [0, 2, 0, 1, 0, 0, 0, 0, 0]"] ;
436 -> 437 ;
438 [label="gini = 0.0\nsamples = 2\nvalue = [0, 2, 0, 0, 0, 0, 0, 0, 0]"] ;
437 -> 438 ;
439 [label="gini = 0.0\nsamples = 1\nvalue = [0, 0, 0, 1, 0, 0, 0, 0, 0]"] ;
437 -> 439 ;
440 [label="gini = 0.0\nsamples = 1\nvalue = [1, 0, 0, 0, 0, 0, 0, 0, 0]"] ;
436 -> 440 ;
441 [label="X[11] <= 9.0\ngini = 0.776\nsamples = 75\nvalue = [3, 22, 14, 22, 7, 1, 6, 0, 0]"] ;
223 -> 441 ;
442 [label="X[0] <= 110.5\ngini = 0.761\nsamples = 52\nvalue = [2, 20, 10, 10, 5, 1, 4, 0, 0]"] ;
441 -> 442 ;
443 [label="X[2] <= 6250000.0\ngini = 0.671\nsamples = 35\nvalue = [0, 17, 9, 4, 4, 0, 1, 0, 0]"] ;
442 -> 443 ;
444 [label="X[3] <= 1995.5\ngini = 0.461\nsamples = 16\nvalue = [0, 11, 1, 4, 0, 0, 0, 0, 0]"] ;
443 -> 444 ;
445 [label="X[8] <= 0.5\ngini = 0.375\nsamples = 4\nvalue = [0, 1, 0, 3, 0, 0, 0, 0, 0]"] ;
444 -> 445 ;
446 [label="gini = 0.0\nsamples = 3\nvalue = [0, 0, 0, 3, 0, 0, 0, 0, 0]"] ;
445 -> 446 ;
447 [label="gini = 0.0\nsamples = 1\nvalue = [0, 1, 0, 0, 0, 0, 0, 0, 0]"] ;
445 -> 447 ;
448 [label="X[11] <= 6.5\ngini = 0.292\nsamples = 12\nvalue = [0, 10, 1, 1, 0, 0, 0, 0, 0]"] ;
444 -> 448 ;
449 [label="X[4] <= 7.35\ngini = 0.165\nsamples = 11\nvalue = [0, 10, 1, 0, 0, 0, 0, 0, 0]"] ;
448 -> 449 ;
450 [label="gini = 0.0\nsamples = 1\nvalue = [0, 0, 1, 0, 0, 0, 0, 0, 0]"] ;
449 -> 450 ;
451 [label="gini = 0.0\nsamples = 10\nvalue = [0, 10, 0, 0, 0, 0, 0, 0, 0]"] ;
449 -> 451 ;
452 [label="gini = 0.0\nsamples = 1\nvalue = [0, 0, 0, 1, 0, 0, 0, 0, 0]"] ;
448 -> 452 ;
453 [label="X[9] <= 2.235\ngini = 0.676\nsamples = 19\nvalue = [0, 6, 8, 0, 4, 0, 1, 0, 0]"] ;
443 -> 453 ;
454 [label="X[10] <= 3336112.625\ngini = 0.622\nsamples = 15\nvalue = [0, 2, 8, 0, 4, 0, 1, 0, 0]"] ;
453 -> 454 ;
455 [label="X[2] <= 7750000.0\ngini = 0.667\nsamples = 6\nvalue = [0, 1, 1, 0, 3, 0, 1, 0, 0]"] ;
454 -> 455 ;
456 [label="X[43] <= 0.5\ngini = 0.667\nsamples = 3\nvalue = [0, 1, 1, 0, 0, 0, 1, 0, 0]"] ;
455 -> 456 ;
457 [label="X[5] <= 2.1\ngini = 0.5\nsamples = 2\nvalue = [0, 1, 1, 0, 0, 0, 0, 0, 0]"] ;
456 -> 457 ;
458 [label="gini = 0.0\nsamples = 1\nvalue = [0, 1, 0, 0, 0, 0, 0, 0, 0]"] ;
457 -> 458 ;
459 [label="gini = 0.0\nsamples = 1\nvalue = [0, 0, 1, 0, 0, 0, 0, 0, 0]"] ;
457 -> 459 ;
460 [label="gini = 0.0\nsamples = 1\nvalue = [0, 0, 0, 0, 0, 0, 1, 0, 0]"] ;
456 -> 460 ;
461 [label="gini = 0.0\nsamples = 3\nvalue = [0, 0, 0, 0, 3, 0, 0, 0, 0]"] ;
455 -> 461 ;
462 [label="X[10] <= 33317525.0\ngini = 0.37\nsamples = 9\nvalue = [0, 1, 7, 0, 1, 0, 0, 0, 0]"] ;
454 -> 462 ;
463 [label="X[11] <= 4.5\ngini = 0.219\nsamples = 8\nvalue = [0, 1, 7, 0, 0, 0, 0, 0, 0]"] ;
462 -> 463 ;
464 [label="gini = 0.0\nsamples = 6\nvalue = [0, 0, 6, 0, 0, 0, 0, 0, 0]"] ;
463 -> 464 ;
465 [label="X[10] <= 17141282.5\ngini = 0.5\nsamples = 2\nvalue = [0, 1, 1, 0, 0, 0, 0, 0, 0]"] ;
463 -> 465 ;
466 [label="gini = 0.0\nsamples = 1\nvalue = [0, 1, 0, 0, 0, 0, 0, 0, 0]"] ;
465 -> 466 ;
467 [label="gini = 0.0\nsamples = 1\nvalue = [0, 0, 1, 0, 0, 0, 0, 0, 0]"] ;
465 -> 467 ;
468 [label="gini = 0.0\nsamples = 1\nvalue = [0, 0, 0, 0, 1, 0, 0, 0, 0]"] ;
462 -> 468 ;
469 [label="gini = 0.0\nsamples = 4\nvalue = [0, 4, 0, 0, 0, 0, 0, 0, 0]"] ;
453 -> 469 ;
470 [label="X[11] <= 1.5\ngini = 0.789\nsamples = 17\nvalue = [2, 3, 1, 6, 1, 1, 3, 0, 0]"] ;
442 -> 470 ;
471 [label="X[4] <= 7.85\ngini = 0.7\nsamples = 10\nvalue = [0, 1, 1, 5, 1, 1, 1, 0, 0]"] ;
470 -> 471 ;
472 [label="X[2] <= 5500000.0\ngini = 0.833\nsamples = 6\nvalue = [0, 1, 1, 1, 1, 1, 1, 0, 0]"] ;
471 -> 472 ;
473 [label="gini = 0.0\nsamples = 1\nvalue = [0, 0, 1, 0, 0, 0, 0, 0, 0]"] ;
472 -> 473 ;
474 [label="X[0] <= 114.0\ngini = 0.8\nsamples = 5\nvalue = [0, 1, 0, 1, 1, 1, 1, 0, 0]"] ;
472 -> 474 ;
475 [label="gini = 0.0\nsamples = 1\nvalue = [0, 0, 0, 0, 1, 0, 0, 0, 0]"] ;
474 -> 475 ;
476 [label="X[7] <= 3.325\ngini = 0.75\nsamples = 4\nvalue = [0, 1, 0, 1, 0, 1, 1, 0, 0]"] ;
474 -> 476 ;
477 [label="gini = 0.0\nsamples = 1\nvalue = [0, 0, 0, 1, 0, 0, 0, 0, 0]"] ;
476 -> 477 ;
478 [label="X[4] <= 7.4\ngini = 0.667\nsamples = 3\nvalue = [0, 1, 0, 0, 0, 1, 1, 0, 0]"] ;
476 -> 478 ;
479 [label="gini = 0.0\nsamples = 1\nvalue = [0, 0, 0, 0, 0, 1, 0, 0, 0]"] ;
478 -> 479 ;
480 [label="X[4] <= 7.55\ngini = 0.5\nsamples = 2\nvalue = [0, 1, 0, 0, 0, 0, 1, 0, 0]"] ;
478 -> 480 ;
481 [label="gini = 0.0\nsamples = 1\nvalue = [0, 0, 0, 0, 0, 0, 1, 0, 0]"] ;
480 -> 481 ;
482 [label="gini = 0.0\nsamples = 1\nvalue = [0, 1, 0, 0, 0, 0, 0, 0, 0]"] ;
480 -> 482 ;
483 [label="gini = 0.0\nsamples = 4\nvalue = [0, 0, 0, 4, 0, 0, 0, 0, 0]"] ;
471 -> 483 ;
484 [label="X[11] <= 3.5\ngini = 0.735\nsamples = 7\nvalue = [2, 2, 0, 1, 0, 0, 2, 0, 0]"] ;
470 -> 484 ;
485 [label="gini = 0.0\nsamples = 2\nvalue = [2, 0, 0, 0, 0, 0, 0, 0, 0]"] ;
484 -> 485 ;
486 [label="X[10] <= 12004104.25\ngini = 0.64\nsamples = 5\nvalue = [0, 2, 0, 1, 0, 0, 2, 0, 0]"] ;
484 -> 486 ;
487 [label="gini = 0.0\nsamples = 2\nvalue = [0, 2, 0, 0, 0, 0, 0, 0, 0]"] ;
486 -> 487 ;
488 [label="X[8] <= 0.5\ngini = 0.444\nsamples = 3\nvalue = [0, 0, 0, 1, 0, 0, 2, 0, 0]"] ;
486 -> 488 ;
489 [label="gini = 0.0\nsamples = 1\nvalue = [0, 0, 0, 1, 0, 0, 0, 0, 0]"] ;
488 -> 489 ;
490 [label="gini = 0.0\nsamples = 2\nvalue = [0, 0, 0, 0, 0, 0, 2, 0, 0]"] ;
488 -> 490 ;
491 [label="X[6] <= 21000792.0\ngini = 0.673\nsamples = 23\nvalue = [1, 2, 4, 12, 2, 0, 2, 0, 0]"] ;
441 -> 491 ;
492 [label="X[2] <= 4250000.0\ngini = 0.617\nsamples = 21\nvalue = [1, 2, 4, 12, 2, 0, 0, 0, 0]"] ;
491 -> 492 ;
493 [label="X[5] <= 1.755\ngini = 0.667\nsamples = 3\nvalue = [0, 1, 1, 0, 1, 0, 0, 0, 0]"] ;
492 -> 493 ;
494 [label="gini = 0.0\nsamples = 1\nvalue = [0, 1, 0, 0, 0, 0, 0, 0, 0]"] ;
493 -> 494 ;
495 [label="X[54] <= 0.5\ngini = 0.5\nsamples = 2\nvalue = [0, 0, 1, 0, 1, 0, 0, 0, 0]"] ;
493 -> 495 ;
496 [label="gini = 0.0\nsamples = 1\nvalue = [0, 0, 0, 0, 1, 0, 0, 0, 0]"] ;
495 -> 496 ;
497 [label="gini = 0.0\nsamples = 1\nvalue = [0, 0, 1, 0, 0, 0, 0, 0, 0]"] ;
495 -> 497 ;
498 [label="X[0] <= 91.0\ngini = 0.519\nsamples = 18\nvalue = [1, 1, 3, 12, 1, 0, 0, 0, 0]"] ;
492 -> 498 ;
499 [label="X[7] <= 3.8\ngini = 0.5\nsamples = 2\nvalue = [1, 0, 1, 0, 0, 0, 0, 0, 0]"] ;
498 -> 499 ;
500 [label="gini = 0.0\nsamples = 1\nvalue = [1, 0, 0, 0, 0, 0, 0, 0, 0]"] ;
499 -> 500 ;
501 [label="gini = 0.0\nsamples = 1\nvalue = [0, 0, 1, 0, 0, 0, 0, 0, 0]"] ;
499 -> 501 ;
502 [label="X[3] <= 1998.5\ngini = 0.414\nsamples = 16\nvalue = [0, 1, 2, 12, 1, 0, 0, 0, 0]"] ;
498 -> 502 ;
503 [label="gini = 0.0\nsamples = 1\nvalue = [0, 0, 1, 0, 0, 0, 0, 0, 0]"] ;
502 -> 503 ;
504 [label="X[10] <= 46791980.0\ngini = 0.347\nsamples = 15\nvalue = [0, 1, 1, 12, 1, 0, 0, 0, 0]"] ;
502 -> 504 ;
505 [label="gini = 0.0\nsamples = 8\nvalue = [0, 0, 0, 8, 0, 0, 0, 0, 0]"] ;
504 -> 505 ;
506 [label="X[10] <= 54608594.0\ngini = 0.612\nsamples = 7\nvalue = [0, 1, 1, 4, 1, 0, 0, 0, 0]"] ;
504 -> 506 ;
507 [label="X[32] <= 0.5\ngini = 0.5\nsamples = 2\nvalue = [0, 1, 1, 0, 0, 0, 0, 0, 0]"] ;
506 -> 507 ;
508 [label="gini = 0.0\nsamples = 1\nvalue = [0, 0, 1, 0, 0, 0, 0, 0, 0]"] ;
507 -> 508 ;
509 [label="gini = 0.0\nsamples = 1\nvalue = [0, 1, 0, 0, 0, 0, 0, 0, 0]"] ;
507 -> 509 ;
510 [label="X[39] <= 0.5\ngini = 0.32\nsamples = 5\nvalue = [0, 0, 0, 4, 1, 0, 0, 0, 0]"] ;
506 -> 510 ;
511 [label="gini = 0.0\nsamples = 4\nvalue = [0, 0, 0, 4, 0, 0, 0, 0, 0]"] ;
510 -> 511 ;
512 [label="gini = 0.0\nsamples = 1\nvalue = [0, 0, 0, 0, 1, 0, 0, 0, 0]"] ;
510 -> 512 ;
513 [label="gini = 0.0\nsamples = 2\nvalue = [0, 0, 0, 0, 0, 0, 2, 0, 0]"] ;
491 -> 513 ;
514 [label="X[3] <= 2003.5\ngini = 0.806\nsamples = 74\nvalue = [6, 14, 22, 15, 9, 6, 2, 0, 0]"] ;
222 -> 514 ;
515 [label="X[1] <= 1.5\ngini = 0.633\nsamples = 29\nvalue = [0, 8, 15, 4, 2, 0, 0, 0, 0]"] ;
514 -> 515 ;
516 [label="X[37] <= 0.5\ngini = 0.601\nsamples = 26\nvalue = [0, 5, 15, 4, 2, 0, 0, 0, 0]"] ;
515 -> 516 ;
517 [label="X[6] <= 33927092.0\ngini = 0.153\nsamples = 12\nvalue = [0, 0, 11, 1, 0, 0, 0, 0, 0]"] ;
516 -> 517 ;
518 [label="gini = 0.0\nsamples = 11\nvalue = [0, 0, 11, 0, 0, 0, 0, 0, 0]"] ;
517 -> 518 ;
519 [label="gini = 0.0\nsamples = 1\nvalue = [0, 0, 0, 1, 0, 0, 0, 0, 0]"] ;
517 -> 519 ;
520 [label="X[2] <= 7500000.0\ngini = 0.724\nsamples = 14\nvalue = [0, 5, 4, 3, 2, 0, 0, 0, 0]"] ;
516 -> 520 ;
521 [label="X[10] <= 5638889.0\ngini = 0.531\nsamples = 8\nvalue = [0, 5, 1, 0, 2, 0, 0, 0, 0]"] ;
520 -> 521 ;
522 [label="X[2] <= 4050000.0\ngini = 0.64\nsamples = 5\nvalue = [0, 2, 1, 0, 2, 0, 0, 0, 0]"] ;
521 -> 522 ;
523 [label="X[10] <= 2000000.0\ngini = 0.444\nsamples = 3\nvalue = [0, 2, 1, 0, 0, 0, 0, 0, 0]"] ;
522 -> 523 ;
524 [label="gini = 0.0\nsamples = 2\nvalue = [0, 2, 0, 0, 0, 0, 0, 0, 0]"] ;
523 -> 524 ;
525 [label="gini = 0.0\nsamples = 1\nvalue = [0, 0, 1, 0, 0, 0, 0, 0, 0]"] ;
523 -> 525 ;
526 [label="gini = 0.0\nsamples = 2\nvalue = [0, 0, 0, 0, 2, 0, 0, 0, 0]"] ;
522 -> 526 ;
527 [label="gini = 0.0\nsamples = 3\nvalue = [0, 3, 0, 0, 0, 0, 0, 0, 0]"] ;
521 -> 527 ;
528 [label="X[3] <= 1992.5\ngini = 0.5\nsamples = 6\nvalue = [0, 0, 3, 3, 0, 0, 0, 0, 0]"] ;
520 -> 528 ;
529 [label="gini = 0.0\nsamples = 3\nvalue = [0, 0, 0, 3, 0, 0, 0, 0, 0]"] ;
528 -> 529 ;
530 [label="gini = 0.0\nsamples = 3\nvalue = [0, 0, 3, 0, 0, 0, 0, 0, 0]"] ;
528 -> 530 ;
531 [label="gini = 0.0\nsamples = 3\nvalue = [0, 3, 0, 0, 0, 0, 0, 0, 0]"] ;
515 -> 531 ;
532 [label="X[7] <= 6.5\ngini = 0.837\nsamples = 45\nvalue = [6, 6, 7, 11, 7, 6, 2, 0, 0]"] ;
514 -> 532 ;
533 [label="X[6] <= 77374288.0\ngini = 0.822\nsamples = 40\nvalue = [6, 3, 7, 11, 7, 4, 2, 0, 0]"] ;
532 -> 533 ;
534 [label="X[51] <= 0.5\ngini = 0.817\nsamples = 37\nvalue = [6, 3, 7, 11, 4, 4, 2, 0, 0]"] ;
533 -> 534 ;
535 [label="X[3] <= 2009.5\ngini = 0.832\nsamples = 23\nvalue = [5, 3, 5, 3, 4, 2, 1, 0, 0]"] ;
534 -> 535 ;
536 [label="X[3] <= 2007.5\ngini = 0.645\nsamples = 11\nvalue = [4, 0, 5, 1, 1, 0, 0, 0, 0]"] ;
535 -> 536 ;
537 [label="X[0] <= 93.5\ngini = 0.56\nsamples = 5\nvalue = [0, 0, 3, 1, 1, 0, 0, 0, 0]"] ;
536 -> 537 ;
538 [label="X[3] <= 2005.5\ngini = 0.5\nsamples = 2\nvalue = [0, 0, 0, 1, 1, 0, 0, 0, 0]"] ;
537 -> 538 ;
539 [label="gini = 0.0\nsamples = 1\nvalue = [0, 0, 0, 0, 1, 0, 0, 0, 0]"] ;
538 -> 539 ;
540 [label="gini = 0.0\nsamples = 1\nvalue = [0, 0, 0, 1, 0, 0, 0, 0, 0]"] ;
538 -> 540 ;
541 [label="gini = 0.0\nsamples = 3\nvalue = [0, 0, 3, 0, 0, 0, 0, 0, 0]"] ;
537 -> 541 ;
542 [label="X[11] <= 3.5\ngini = 0.444\nsamples = 6\nvalue = [4, 0, 2, 0, 0, 0, 0, 0, 0]"] ;
536 -> 542 ;
543 [label="X[3] <= 2008.5\ngini = 0.444\nsamples = 3\nvalue = [1, 0, 2, 0, 0, 0, 0, 0, 0]"] ;
542 -> 543 ;
544 [label="gini = 0.0\nsamples = 2\nvalue = [0, 0, 2, 0, 0, 0, 0, 0, 0]"] ;
543 -> 544 ;
545 [label="gini = 0.0\nsamples = 1\nvalue = [1, 0, 0, 0, 0, 0, 0, 0, 0]"] ;
543 -> 545 ;
546 [label="gini = 0.0\nsamples = 3\nvalue = [3, 0, 0, 0, 0, 0, 0, 0, 0]"] ;
542 -> 546 ;
547 [label="X[10] <= 19579833.0\ngini = 0.806\nsamples = 12\nvalue = [1, 3, 0, 2, 3, 2, 1, 0, 0]"] ;
535 -> 547 ;
548 [label="X[0] <= 91.5\ngini = 0.765\nsamples = 9\nvalue = [1, 0, 0, 2, 3, 2, 1, 0, 0]"] ;
547 -> 548 ;
549 [label="X[10] <= 18036919.0\ngini = 0.375\nsamples = 4\nvalue = [0, 0, 0, 1, 3, 0, 0, 0, 0]"] ;
548 -> 549 ;
550 [label="gini = 0.0\nsamples = 3\nvalue = [0, 0, 0, 0, 3, 0, 0, 0, 0]"] ;
549 -> 550 ;
551 [label="gini = 0.0\nsamples = 1\nvalue = [0, 0, 0, 1, 0, 0, 0, 0, 0]"] ;
549 -> 551 ;
552 [label="X[9] <= 0.667\ngini = 0.72\nsamples = 5\nvalue = [1, 0, 0, 1, 0, 2, 1, 0, 0]"] ;
548 -> 552 ;
553 [label="X[3] <= 2012.5\ngini = 0.5\nsamples = 2\nvalue = [0, 0, 0, 1, 0, 0, 1, 0, 0]"] ;
552 -> 553 ;
554 [label="gini = 0.0\nsamples = 1\nvalue = [0, 0, 0, 0, 0, 0, 1, 0, 0]"] ;
553 -> 554 ;
555 [label="gini = 0.0\nsamples = 1\nvalue = [0, 0, 0, 1, 0, 0, 0, 0, 0]"] ;
553 -> 555 ;
556 [label="X[46] <= 0.5\ngini = 0.444\nsamples = 3\nvalue = [1, 0, 0, 0, 0, 2, 0, 0, 0]"] ;
552 -> 556 ;
557 [label="gini = 0.0\nsamples = 2\nvalue = [0, 0, 0, 0, 0, 2, 0, 0, 0]"] ;
556 -> 557 ;
558 [label="gini = 0.0\nsamples = 1\nvalue = [1, 0, 0, 0, 0, 0, 0, 0, 0]"] ;
556 -> 558 ;
559 [label="gini = 0.0\nsamples = 3\nvalue = [0, 3, 0, 0, 0, 0, 0, 0, 0]"] ;
547 -> 559 ;
560 [label="X[10] <= 12814083.5\ngini = 0.622\nsamples = 14\nvalue = [1, 0, 2, 8, 0, 2, 1, 0, 0]"] ;
534 -> 560 ;
561 [label="X[0] <= 89.5\ngini = 0.346\nsamples = 9\nvalue = [0, 0, 2, 7, 0, 0, 0, 0, 0]"] ;
560 -> 561 ;
562 [label="gini = 0.0\nsamples = 2\nvalue = [0, 0, 2, 0, 0, 0, 0, 0, 0]"] ;
561 -> 562 ;
563 [label="gini = 0.0\nsamples = 7\nvalue = [0, 0, 0, 7, 0, 0, 0, 0, 0]"] ;
561 -> 563 ;
564 [label="X[39] <= 0.5\ngini = 0.72\nsamples = 5\nvalue = [1, 0, 0, 1, 0, 2, 1, 0, 0]"] ;
560 -> 564 ;
565 [label="gini = 0.0\nsamples = 2\nvalue = [0, 0, 0, 0, 0, 2, 0, 0, 0]"] ;
564 -> 565 ;
566 [label="X[5] <= 2.1\ngini = 0.667\nsamples = 3\nvalue = [1, 0, 0, 1, 0, 0, 1, 0, 0]"] ;
564 -> 566 ;
567 [label="gini = 0.0\nsamples = 1\nvalue = [0, 0, 0, 0, 0, 0, 1, 0, 0]"] ;
566 -> 567 ;
568 [label="X[32] <= 0.5\ngini = 0.5\nsamples = 2\nvalue = [1, 0, 0, 1, 0, 0, 0, 0, 0]"] ;
566 -> 568 ;
569 [label="gini = 0.0\nsamples = 1\nvalue = [0, 0, 0, 1, 0, 0, 0, 0, 0]"] ;
568 -> 569 ;
570 [label="gini = 0.0\nsamples = 1\nvalue = [1, 0, 0, 0, 0, 0, 0, 0, 0]"] ;
568 -> 570 ;
571 [label="gini = 0.0\nsamples = 3\nvalue = [0, 0, 0, 0, 3, 0, 0, 0, 0]"] ;
533 -> 571 ;
572 [label="X[6] <= 31095863.0\ngini = 0.48\nsamples = 5\nvalue = [0, 3, 0, 0, 0, 2, 0, 0, 0]"] ;
532 -> 572 ;
573 [label="gini = 0.0\nsamples = 3\nvalue = [0, 3, 0, 0, 0, 0, 0, 0, 0]"] ;
572 -> 573 ;
574 [label="gini = 0.0\nsamples = 2\nvalue = [0, 0, 0, 0, 0, 2, 0, 0, 0]"] ;
572 -> 574 ;
575 [label="X[4] <= 6.75\ngini = 0.825\nsamples = 774\nvalue = [37, 130, 164, 195, 127, 66, 34, 12, 9]"] ;
177 -> 575 ;
576 [label="X[3] <= 1986.5\ngini = 0.798\nsamples = 496\nvalue = [26, 99, 119, 138, 72, 27, 11, 4, 0]"] ;
575 -> 576 ;
577 [label="X[9] <= 0.361\ngini = 0.66\nsamples = 20\nvalue = [1, 11, 2, 1, 2, 2, 1, 0, 0]"] ;
576 -> 577 ;
578 [label="X[51] <= 0.5\ngini = 0.417\nsamples = 12\nvalue = [1, 9, 1, 0, 0, 1, 0, 0, 0]"] ;
577 -> 578 ;
579 [label="X[43] <= 0.5\ngini = 0.18\nsamples = 10\nvalue = [0, 9, 1, 0, 0, 0, 0, 0, 0]"] ;
578 -> 579 ;
580 [label="gini = 0.0\nsamples = 9\nvalue = [0, 9, 0, 0, 0, 0, 0, 0, 0]"] ;
579 -> 580 ;
581 [label="gini = 0.0\nsamples = 1\nvalue = [0, 0, 1, 0, 0, 0, 0, 0, 0]"] ;
579 -> 581 ;
582 [label="X[35] <= 0.5\ngini = 0.5\nsamples = 2\nvalue = [1, 0, 0, 0, 0, 1, 0, 0, 0]"] ;
578 -> 582 ;
583 [label="gini = 0.0\nsamples = 1\nvalue = [1, 0, 0, 0, 0, 0, 0, 0, 0]"] ;
582 -> 583 ;
584 [label="gini = 0.0\nsamples = 1\nvalue = [0, 0, 0, 0, 0, 1, 0, 0, 0]"] ;
582 -> 584 ;
585 [label="X[2] <= 17500000.0\ngini = 0.812\nsamples = 8\nvalue = [0, 2, 1, 1, 2, 1, 1, 0, 0]"] ;
577 -> 585 ;
586 [label="X[35] <= 0.5\ngini = 0.625\nsamples = 4\nvalue = [0, 2, 1, 0, 0, 1, 0, 0, 0]"] ;
585 -> 586 ;
587 [label="gini = 0.0\nsamples = 2\nvalue = [0, 2, 0, 0, 0, 0, 0, 0, 0]"] ;
586 -> 587 ;
588 [label="X[4] <= 6.3\ngini = 0.5\nsamples = 2\nvalue = [0, 0, 1, 0, 0, 1, 0, 0, 0]"] ;
586 -> 588 ;
589 [label="gini = 0.0\nsamples = 1\nvalue = [0, 0, 1, 0, 0, 0, 0, 0, 0]"] ;
588 -> 589 ;
590 [label="gini = 0.0\nsamples = 1\nvalue = [0, 0, 0, 0, 0, 1, 0, 0, 0]"] ;
588 -> 590 ;
591 [label="X[4] <= 5.85\ngini = 0.625\nsamples = 4\nvalue = [0, 0, 0, 1, 2, 0, 1, 0, 0]"] ;
585 -> 591 ;
592 [label="X[10] <= 31448190.25\ngini = 0.5\nsamples = 2\nvalue = [0, 0, 0, 1, 0, 0, 1, 0, 0]"] ;
591 -> 592 ;
593 [label="gini = 0.0\nsamples = 1\nvalue = [0, 0, 0, 1, 0, 0, 0, 0, 0]"] ;
592 -> 593 ;
594 [label="gini = 0.0\nsamples = 1\nvalue = [0, 0, 0, 0, 0, 0, 1, 0, 0]"] ;
592 -> 594 ;
595 [label="gini = 0.0\nsamples = 2\nvalue = [0, 0, 0, 0, 2, 0, 0, 0, 0]"] ;
591 -> 595 ;
596 [label="X[50] <= 0.5\ngini = 0.795\nsamples = 476\nvalue = [25, 88, 117, 137, 70, 25, 10, 4, 0]"] ;
576 -> 596 ;
597 [label="X[43] <= 0.5\ngini = 0.798\nsamples = 405\nvalue = [23, 82, 105, 107, 52, 23, 9, 4, 0]"] ;
596 -> 597 ;
598 [label="X[3] <= 2009.5\ngini = 0.791\nsamples = 343\nvalue = [23, 75, 94, 90, 34, 18, 7, 2, 0]"] ;
597 -> 598 ;
599 [label="X[2] <= 17250000.0\ngini = 0.768\nsamples = 248\nvalue = [13, 59, 78, 63, 23, 7, 4, 1, 0]"] ;
598 -> 599 ;
600 [label="X[9] <= 1.722\ngini = 0.754\nsamples = 107\nvalue = [5, 34, 26, 30, 6, 5, 1, 0, 0]"] ;
599 -> 600 ;
601 [label="X[9] <= 1.389\ngini = 0.7\nsamples = 56\nvalue = [2, 23, 5, 19, 4, 2, 1, 0, 0]"] ;
600 -> 601 ;
602 [label="X[1] <= 5.5\ngini = 0.727\nsamples = 43\nvalue = [2, 13, 5, 17, 4, 1, 1, 0, 0]"] ;
601 -> 602 ;
603 [label="X[6] <= 42037448.0\ngini = 0.707\nsamples = 41\nvalue = [2, 13, 5, 17, 2, 1, 1, 0, 0]"] ;
602 -> 603 ;
604 [label="X[2] <= 12500000.0\ngini = 0.714\nsamples = 31\nvalue = [1, 12, 5, 10, 2, 1, 0, 0, 0]"] ;
603 -> 604 ;
605 [label="X[4] <= 4.15\ngini = 0.375\nsamples = 8\nvalue = [0, 6, 0, 2, 0, 0, 0, 0, 0]"] ;
604 -> 605 ;
606 [label="X[46] <= 0.5\ngini = 0.444\nsamples = 3\nvalue = [0, 1, 0, 2, 0, 0, 0, 0, 0]"] ;
605 -> 606 ;
607 [label="gini = 0.0\nsamples = 1\nvalue = [0, 1, 0, 0, 0, 0, 0, 0, 0]"] ;
606 -> 607 ;
608 [label="gini = 0.0\nsamples = 2\nvalue = [0, 0, 0, 2, 0, 0, 0, 0, 0]"] ;
606 -> 608 ;
609 [label="gini = 0.0\nsamples = 5\nvalue = [0, 5, 0, 0, 0, 0, 0, 0, 0]"] ;
605 -> 609 ;
610 [label="X[7] <= 5.25\ngini = 0.752\nsamples = 23\nvalue = [1, 6, 5, 8, 2, 1, 0, 0, 0]"] ;
604 -> 610 ;
611 [label="X[32] <= 0.5\ngini = 0.739\nsamples = 21\nvalue = [1, 6, 3, 8, 2, 1, 0, 0, 0]"] ;
610 -> 611 ;
612 [label="X[0] <= 83.5\ngini = 0.612\nsamples = 7\nvalue = [0, 4, 1, 1, 1, 0, 0, 0, 0]"] ;
611 -> 612 ;
613 [label="X[2] <= 13500000.0\ngini = 0.5\nsamples = 2\nvalue = [0, 0, 0, 1, 1, 0, 0, 0, 0]"] ;
612 -> 613 ;
614 [label="gini = 0.0\nsamples = 1\nvalue = [0, 0, 0, 0, 1, 0, 0, 0, 0]"] ;
613 -> 614 ;
615 [label="gini = 0.0\nsamples = 1\nvalue = [0, 0, 0, 1, 0, 0, 0, 0, 0]"] ;
613 -> 615 ;
616 [label="X[0] <= 99.0\ngini = 0.32\nsamples = 5\nvalue = [0, 4, 1, 0, 0, 0, 0, 0, 0]"] ;
612 -> 616 ;
617 [label="gini = 0.0\nsamples = 4\nvalue = [0, 4, 0, 0, 0, 0, 0, 0, 0]"] ;
616 -> 617 ;
618 [label="gini = 0.0\nsamples = 1\nvalue = [0, 0, 1, 0, 0, 0, 0, 0, 0]"] ;
616 -> 618 ;
619 [label="X[37] <= 0.5\ngini = 0.694\nsamples = 14\nvalue = [1, 2, 2, 7, 1, 1, 0, 0, 0]"] ;
611 -> 619 ;
620 [label="X[0] <= 89.5\ngini = 0.611\nsamples = 12\nvalue = [0, 2, 1, 7, 1, 1, 0, 0, 0]"] ;
619 -> 620 ;
621 [label="X[42] <= 0.5\ngini = 0.5\nsamples = 2\nvalue = [0, 1, 0, 0, 0, 1, 0, 0, 0]"] ;
620 -> 621 ;
622 [label="gini = 0.0\nsamples = 1\nvalue = [0, 1, 0, 0, 0, 0, 0, 0, 0]"] ;
621 -> 622 ;
623 [label="gini = 0.0\nsamples = 1\nvalue = [0, 0, 0, 0, 0, 1, 0, 0, 0]"] ;
621 -> 623 ;
624 [label="X[54] <= 0.5\ngini = 0.48\nsamples = 10\nvalue = [0, 1, 1, 7, 1, 0, 0, 0, 0]"] ;
620 -> 624 ;
625 [label="X[48] <= 0.5\ngini = 0.37\nsamples = 9\nvalue = [0, 0, 1, 7, 1, 0, 0, 0, 0]"] ;
624 -> 625 ;
626 [label="X[35] <= 0.5\ngini = 0.219\nsamples = 8\nvalue = [0, 0, 1, 7, 0, 0, 0, 0, 0]"] ;
625 -> 626 ;
627 [label="X[2] <= 14500000.0\ngini = 0.444\nsamples = 3\nvalue = [0, 0, 1, 2, 0, 0, 0, 0, 0]"] ;
626 -> 627 ;
628 [label="gini = 0.0\nsamples = 1\nvalue = [0, 0, 1, 0, 0, 0, 0, 0, 0]"] ;
627 -> 628 ;
629 [label="gini = 0.0\nsamples = 2\nvalue = [0, 0, 0, 2, 0, 0, 0, 0, 0]"] ;
627 -> 629 ;
630 [label="gini = 0.0\nsamples = 5\nvalue = [0, 0, 0, 5, 0, 0, 0, 0, 0]"] ;
626 -> 630 ;
631 [label="gini = 0.0\nsamples = 1\nvalue = [0, 0, 0, 0, 1, 0, 0, 0, 0]"] ;
625 -> 631 ;
632 [label="gini = 0.0\nsamples = 1\nvalue = [0, 1, 0, 0, 0, 0, 0, 0, 0]"] ;
624 -> 632 ;
633 [label="X[46] <= 0.5\ngini = 0.5\nsamples = 2\nvalue = [1, 0, 1, 0, 0, 0, 0, 0, 0]"] ;
619 -> 633 ;
634 [label="gini = 0.0\nsamples = 1\nvalue = [0, 0, 1, 0, 0, 0, 0, 0, 0]"] ;
633 -> 634 ;
635 [label="gini = 0.0\nsamples = 1\nvalue = [1, 0, 0, 0, 0, 0, 0, 0, 0]"] ;
633 -> 635 ;
636 [label="gini = 0.0\nsamples = 2\nvalue = [0, 0, 2, 0, 0, 0, 0, 0, 0]"] ;
610 -> 636 ;
637 [label="X[1] <= 3.5\ngini = 0.48\nsamples = 10\nvalue = [1, 1, 0, 7, 0, 0, 1, 0, 0]"] ;
603 -> 637 ;
638 [label="X[3] <= 1989.5\ngini = 0.219\nsamples = 8\nvalue = [0, 0, 0, 7, 0, 0, 1, 0, 0]"] ;
637 -> 638 ;
639 [label="gini = 0.0\nsamples = 1\nvalue = [0, 0, 0, 0, 0, 0, 1, 0, 0]"] ;
638 -> 639 ;
640 [label="gini = 0.0\nsamples = 7\nvalue = [0, 0, 0, 7, 0, 0, 0, 0, 0]"] ;
638 -> 640 ;
641 [label="X[2] <= 14500000.0\ngini = 0.5\nsamples = 2\nvalue = [1, 1, 0, 0, 0, 0, 0, 0, 0]"] ;
637 -> 641 ;
642 [label="gini = 0.0\nsamples = 1\nvalue = [1, 0, 0, 0, 0, 0, 0, 0, 0]"] ;
641 -> 642 ;
643 [label="gini = 0.0\nsamples = 1\nvalue = [0, 1, 0, 0, 0, 0, 0, 0, 0]"] ;
641 -> 643 ;
644 [label="gini = 0.0\nsamples = 2\nvalue = [0, 0, 0, 0, 2, 0, 0, 0, 0]"] ;
602 -> 644 ;
645 [label="X[9] <= 1.622\ngini = 0.379\nsamples = 13\nvalue = [0, 10, 0, 2, 0, 1, 0, 0, 0]"] ;
601 -> 645 ;
646 [label="X[2] <= 16500000.0\ngini = 0.165\nsamples = 11\nvalue = [0, 10, 0, 1, 0, 0, 0, 0, 0]"] ;
645 -> 646 ;
647 [label="gini = 0.0\nsamples = 10\nvalue = [0, 10, 0, 0, 0, 0, 0, 0, 0]"] ;
646 -> 647 ;
648 [label="gini = 0.0\nsamples = 1\nvalue = [0, 0, 0, 1, 0, 0, 0, 0, 0]"] ;
646 -> 648 ;
649 [label="X[36] <= 0.5\ngini = 0.5\nsamples = 2\nvalue = [0, 0, 0, 1, 0, 1, 0, 0, 0]"] ;
645 -> 649 ;
650 [label="gini = 0.0\nsamples = 1\nvalue = [0, 0, 0, 0, 0, 1, 0, 0, 0]"] ;
649 -> 650 ;
651 [label="gini = 0.0\nsamples = 1\nvalue = [0, 0, 0, 1, 0, 0, 0, 0, 0]"] ;
649 -> 651 ;
652 [label="X[4] <= 5.85\ngini = 0.729\nsamples = 51\nvalue = [3, 11, 21, 11, 2, 3, 0, 0, 0]"] ;
600 -> 652 ;
653 [label="X[3] <= 2002.5\ngini = 0.569\nsamples = 24\nvalue = [1, 1, 14, 7, 1, 0, 0, 0, 0]"] ;
652 -> 653 ;
654 [label="X[11] <= 3.5\ngini = 0.357\nsamples = 14\nvalue = [1, 0, 11, 2, 0, 0, 0, 0, 0]"] ;
653 -> 654 ;
655 [label="gini = 0.0\nsamples = 2\nvalue = [0, 0, 0, 2, 0, 0, 0, 0, 0]"] ;
654 -> 655 ;
656 [label="X[11] <= 12.0\ngini = 0.153\nsamples = 12\nvalue = [1, 0, 11, 0, 0, 0, 0, 0, 0]"] ;
654 -> 656 ;
657 [label="gini = 0.0\nsamples = 11\nvalue = [0, 0, 11, 0, 0, 0, 0, 0, 0]"] ;
656 -> 657 ;
658 [label="gini = 0.0\nsamples = 1\nvalue = [1, 0, 0, 0, 0, 0, 0, 0, 0]"] ;
656 -> 658 ;
659 [label="X[7] <= 6.1\ngini = 0.64\nsamples = 10\nvalue = [0, 1, 3, 5, 1, 0, 0, 0, 0]"] ;
653 -> 659 ;
660 [label="X[1] <= 6.0\ngini = 0.562\nsamples = 8\nvalue = [0, 1, 1, 5, 1, 0, 0, 0, 0]"] ;
659 -> 660 ;
661 [label="X[1] <= 1.0\ngini = 0.278\nsamples = 6\nvalue = [0, 0, 0, 5, 1, 0, 0, 0, 0]"] ;
660 -> 661 ;
662 [label="gini = 0.0\nsamples = 1\nvalue = [0, 0, 0, 0, 1, 0, 0, 0, 0]"] ;
661 -> 662 ;
663 [label="gini = 0.0\nsamples = 5\nvalue = [0, 0, 0, 5, 0, 0, 0, 0, 0]"] ;
661 -> 663 ;
664 [label="X[31] <= 0.5\ngini = 0.5\nsamples = 2\nvalue = [0, 1, 1, 0, 0, 0, 0, 0, 0]"] ;
660 -> 664 ;
665 [label="gini = 0.0\nsamples = 1\nvalue = [0, 0, 1, 0, 0, 0, 0, 0, 0]"] ;
664 -> 665 ;
666 [label="gini = 0.0\nsamples = 1\nvalue = [0, 1, 0, 0, 0, 0, 0, 0, 0]"] ;
664 -> 666 ;
667 [label="gini = 0.0\nsamples = 2\nvalue = [0, 0, 2, 0, 0, 0, 0, 0, 0]"] ;
659 -> 667 ;
668 [label="X[10] <= 57558872.0\ngini = 0.754\nsamples = 27\nvalue = [2, 10, 7, 4, 1, 3, 0, 0, 0]"] ;
652 -> 668 ;
669 [label="X[9] <= 2.637\ngini = 0.733\nsamples = 25\nvalue = [2, 10, 7, 2, 1, 3, 0, 0, 0]"] ;
668 -> 669 ;
670 [label="X[9] <= 2.412\ngini = 0.722\nsamples = 12\nvalue = [1, 2, 5, 1, 0, 3, 0, 0, 0]"] ;
669 -> 670 ;
671 [label="X[11] <= 5.5\ngini = 0.765\nsamples = 9\nvalue = [1, 2, 2, 1, 0, 3, 0, 0, 0]"] ;
670 -> 671 ;
672 [label="X[4] <= 6.1\ngini = 0.611\nsamples = 6\nvalue = [0, 0, 2, 1, 0, 3, 0, 0, 0]"] ;
671 -> 672 ;
673 [label="gini = 0.0\nsamples = 1\nvalue = [0, 0, 0, 1, 0, 0, 0, 0, 0]"] ;
672 -> 673 ;
674 [label="X[0] <= 99.5\ngini = 0.48\nsamples = 5\nvalue = [0, 0, 2, 0, 0, 3, 0, 0, 0]"] ;
672 -> 674 ;
675 [label="X[3] <= 2000.5\ngini = 0.444\nsamples = 3\nvalue = [0, 0, 2, 0, 0, 1, 0, 0, 0]"] ;
674 -> 675 ;
676 [label="gini = 0.0\nsamples = 1\nvalue = [0, 0, 0, 0, 0, 1, 0, 0, 0]"] ;
675 -> 676 ;
677 [label="gini = 0.0\nsamples = 2\nvalue = [0, 0, 2, 0, 0, 0, 0, 0, 0]"] ;
675 -> 677 ;
678 [label="gini = 0.0\nsamples = 2\nvalue = [0, 0, 0, 0, 0, 2, 0, 0, 0]"] ;
674 -> 678 ;
679 [label="X[6] <= 2023368.5\ngini = 0.444\nsamples = 3\nvalue = [1, 2, 0, 0, 0, 0, 0, 0, 0]"] ;
671 -> 679 ;
680 [label="gini = 0.0\nsamples = 2\nvalue = [0, 2, 0, 0, 0, 0, 0, 0, 0]"] ;
679 -> 680 ;
681 [label="gini = 0.0\nsamples = 1\nvalue = [1, 0, 0, 0, 0, 0, 0, 0, 0]"] ;
679 -> 681 ;
682 [label="gini = 0.0\nsamples = 3\nvalue = [0, 0, 3, 0, 0, 0, 0, 0, 0]"] ;
670 -> 682 ;
683 [label="X[2] <= 14500000.0\ngini = 0.58\nsamples = 13\nvalue = [1, 8, 2, 1, 1, 0, 0, 0, 0]"] ;
669 -> 683 ;
684 [label="X[10] <= 30078048.0\ngini = 0.72\nsamples = 5\nvalue = [1, 1, 2, 0, 1, 0, 0, 0, 0]"] ;
683 -> 684 ;
685 [label="gini = 0.0\nsamples = 2\nvalue = [0, 0, 2, 0, 0, 0, 0, 0, 0]"] ;
684 -> 685 ;
686 [label="X[3] <= 2004.0\ngini = 0.667\nsamples = 3\nvalue = [1, 1, 0, 0, 1, 0, 0, 0, 0]"] ;
684 -> 686 ;
687 [label="gini = 0.0\nsamples = 1\nvalue = [1, 0, 0, 0, 0, 0, 0, 0, 0]"] ;
686 -> 687 ;
688 [label="X[4] <= 6.2\ngini = 0.5\nsamples = 2\nvalue = [0, 1, 0, 0, 1, 0, 0, 0, 0]"] ;
686 -> 688 ;
689 [label="gini = 0.0\nsamples = 1\nvalue = [0, 0, 0, 0, 1, 0, 0, 0, 0]"] ;
688 -> 689 ;
690 [label="gini = 0.0\nsamples = 1\nvalue = [0, 1, 0, 0, 0, 0, 0, 0, 0]"] ;
688 -> 690 ;
691 [label="X[0] <= 91.5\ngini = 0.219\nsamples = 8\nvalue = [0, 7, 0, 1, 0, 0, 0, 0, 0]"] ;
683 -> 691 ;
692 [label="gini = 0.0\nsamples = 1\nvalue = [0, 0, 0, 1, 0, 0, 0, 0, 0]"] ;
691 -> 692 ;
693 [label="gini = 0.0\nsamples = 7\nvalue = [0, 7, 0, 0, 0, 0, 0, 0, 0]"] ;
691 -> 693 ;
694 [label="gini = 0.0\nsamples = 2\nvalue = [0, 0, 0, 2, 0, 0, 0, 0, 0]"] ;
668 -> 694 ;
695 [label="X[11] <= 17.5\ngini = 0.759\nsamples = 141\nvalue = [8, 25, 52, 33, 17, 2, 3, 1, 0]"] ;
599 -> 695 ;
696 [label="X[6] <= 13570158.5\ngini = 0.755\nsamples = 132\nvalue = [8, 20, 51, 30, 17, 2, 3, 1, 0]"] ;
695 -> 696 ;
697 [label="X[9] <= 2.059\ngini = 0.79\nsamples = 89\nvalue = [7, 15, 27, 23, 11, 2, 3, 1, 0]"] ;
696 -> 697 ;
698 [label="X[10] <= 7552059.25\ngini = 0.743\nsamples = 55\nvalue = [3, 7, 17, 20, 5, 2, 0, 1, 0]"] ;
697 -> 698 ;
699 [label="X[10] <= 5637402.5\ngini = 0.793\nsamples = 32\nvalue = [3, 4, 11, 6, 5, 2, 0, 1, 0]"] ;
698 -> 699 ;
700 [label="X[31] <= 0.5\ngini = 0.826\nsamples = 27\nvalue = [3, 4, 6, 6, 5, 2, 0, 1, 0]"] ;
699 -> 700 ;
701 [label="X[39] <= 0.5\ngini = 0.617\nsamples = 9\nvalue = [1, 2, 1, 5, 0, 0, 0, 0, 0]"] ;
700 -> 701 ;
702 [label="X[47] <= 0.5\ngini = 0.32\nsamples = 5\nvalue = [0, 0, 1, 4, 0, 0, 0, 0, 0]"] ;
701 -> 702 ;
703 [label="gini = 0.0\nsamples = 4\nvalue = [0, 0, 0, 4, 0, 0, 0, 0, 0]"] ;
702 -> 703 ;
704 [label="gini = 0.0\nsamples = 1\nvalue = [0, 0, 1, 0, 0, 0, 0, 0, 0]"] ;
702 -> 704 ;
705 [label="X[2] <= 22500000.0\ngini = 0.625\nsamples = 4\nvalue = [1, 2, 0, 1, 0, 0, 0, 0, 0]"] ;
701 -> 705 ;
706 [label="X[2] <= 19750000.0\ngini = 0.5\nsamples = 2\nvalue = [1, 0, 0, 1, 0, 0, 0, 0, 0]"] ;
705 -> 706 ;
707 [label="gini = 0.0\nsamples = 1\nvalue = [1, 0, 0, 0, 0, 0, 0, 0, 0]"] ;
706 -> 707 ;
708 [label="gini = 0.0\nsamples = 1\nvalue = [0, 0, 0, 1, 0, 0, 0, 0, 0]"] ;
706 -> 708 ;
709 [label="gini = 0.0\nsamples = 2\nvalue = [0, 2, 0, 0, 0, 0, 0, 0, 0]"] ;
705 -> 709 ;
710 [label="X[2] <= 19000000.0\ngini = 0.802\nsamples = 18\nvalue = [2, 2, 5, 1, 5, 2, 0, 1, 0]"] ;
700 -> 710 ;
711 [label="X[9] <= 0.528\ngini = 0.625\nsamples = 4\nvalue = [0, 0, 0, 1, 1, 2, 0, 0, 0]"] ;
710 -> 711 ;
712 [label="X[10] <= 296314.344\ngini = 0.5\nsamples = 2\nvalue = [0, 0, 0, 1, 1, 0, 0, 0, 0]"] ;
711 -> 712 ;
713 [label="gini = 0.0\nsamples = 1\nvalue = [0, 0, 0, 0, 1, 0, 0, 0, 0]"] ;
712 -> 713 ;
714 [label="gini = 0.0\nsamples = 1\nvalue = [0, 0, 0, 1, 0, 0, 0, 0, 0]"] ;
712 -> 714 ;
715 [label="gini = 0.0\nsamples = 2\nvalue = [0, 0, 0, 0, 0, 2, 0, 0, 0]"] ;
711 -> 715 ;
716 [label="X[54] <= 0.5\ngini = 0.745\nsamples = 14\nvalue = [2, 2, 5, 0, 4, 0, 0, 1, 0]"] ;
710 -> 716 ;
717 [label="X[10] <= 4437678.25\ngini = 0.711\nsamples = 11\nvalue = [2, 1, 5, 0, 2, 0, 0, 1, 0]"] ;
716 -> 717 ;
718 [label="X[49] <= 0.5\ngini = 0.449\nsamples = 7\nvalue = [1, 0, 5, 0, 1, 0, 0, 0, 0]"] ;
717 -> 718 ;
719 [label="X[40] <= 0.5\ngini = 0.278\nsamples = 6\nvalue = [1, 0, 5, 0, 0, 0, 0, 0, 0]"] ;
718 -> 719 ;
720 [label="gini = 0.0\nsamples = 4\nvalue = [0, 0, 4, 0, 0, 0, 0, 0, 0]"] ;
719 -> 720 ;
721 [label="X[38] <= 0.5\ngini = 0.5\nsamples = 2\nvalue = [1, 0, 1, 0, 0, 0, 0, 0, 0]"] ;
719 -> 721 ;
722 [label="gini = 0.0\nsamples = 1\nvalue = [1, 0, 0, 0, 0, 0, 0, 0, 0]"] ;
721 -> 722 ;
723 [label="gini = 0.0\nsamples = 1\nvalue = [0, 0, 1, 0, 0, 0, 0, 0, 0]"] ;
721 -> 723 ;
724 [label="gini = 0.0\nsamples = 1\nvalue = [0, 0, 0, 0, 1, 0, 0, 0, 0]"] ;
718 -> 724 ;
725 [label="X[3] <= 1996.5\ngini = 0.75\nsamples = 4\nvalue = [1, 1, 0, 0, 1, 0, 0, 1, 0]"] ;
717 -> 725 ;
726 [label="gini = 0.0\nsamples = 1\nvalue = [0, 1, 0, 0, 0, 0, 0, 0, 0]"] ;
725 -> 726 ;
727 [label="X[10] <= 4707444.5\ngini = 0.667\nsamples = 3\nvalue = [1, 0, 0, 0, 1, 0, 0, 1, 0]"] ;
725 -> 727 ;
728 [label="gini = 0.0\nsamples = 1\nvalue = [0, 0, 0, 0, 0, 0, 0, 1, 0]"] ;
727 -> 728 ;
729 [label="X[35] <= 0.5\ngini = 0.5\nsamples = 2\nvalue = [1, 0, 0, 0, 1, 0, 0, 0, 0]"] ;
727 -> 729 ;
730 [label="gini = 0.0\nsamples = 1\nvalue = [0, 0, 0, 0, 1, 0, 0, 0, 0]"] ;
729 -> 730 ;
731 [label="gini = 0.0\nsamples = 1\nvalue = [1, 0, 0, 0, 0, 0, 0, 0, 0]"] ;
729 -> 731 ;
732 [label="X[3] <= 2001.5\ngini = 0.444\nsamples = 3\nvalue = [0, 1, 0, 0, 2, 0, 0, 0, 0]"] ;
716 -> 732 ;
733 [label="gini = 0.0\nsamples = 1\nvalue = [0, 1, 0, 0, 0, 0, 0, 0, 0]"] ;
732 -> 733 ;
734 [label="gini = 0.0\nsamples = 2\nvalue = [0, 0, 0, 0, 2, 0, 0, 0, 0]"] ;
732 -> 734 ;
735 [label="gini = 0.0\nsamples = 5\nvalue = [0, 0, 5, 0, 0, 0, 0, 0, 0]"] ;
699 -> 735 ;
736 [label="X[3] <= 1990.0\ngini = 0.544\nsamples = 23\nvalue = [0, 3, 6, 14, 0, 0, 0, 0, 0]"] ;
698 -> 736 ;
737 [label="X[5] <= 1.61\ngini = 0.444\nsamples = 3\nvalue = [0, 1, 2, 0, 0, 0, 0, 0, 0]"] ;
736 -> 737 ;
738 [label="gini = 0.0\nsamples = 1\nvalue = [0, 1, 0, 0, 0, 0, 0, 0, 0]"] ;
737 -> 738 ;
739 [label="gini = 0.0\nsamples = 2\nvalue = [0, 0, 2, 0, 0, 0, 0, 0, 0]"] ;
737 -> 739 ;
740 [label="X[10] <= 11034035.0\ngini = 0.46\nsamples = 20\nvalue = [0, 2, 4, 14, 0, 0, 0, 0, 0]"] ;
736 -> 740 ;
741 [label="X[10] <= 9102111.0\ngini = 0.494\nsamples = 9\nvalue = [0, 0, 4, 5, 0, 0, 0, 0, 0]"] ;
740 -> 741 ;
742 [label="gini = 0.0\nsamples = 4\nvalue = [0, 0, 0, 4, 0, 0, 0, 0, 0]"] ;
741 -> 742 ;
743 [label="X[2] <= 17850000.0\ngini = 0.32\nsamples = 5\nvalue = [0, 0, 4, 1, 0, 0, 0, 0, 0]"] ;
741 -> 743 ;
744 [label="gini = 0.0\nsamples = 1\nvalue = [0, 0, 0, 1, 0, 0, 0, 0, 0]"] ;
743 -> 744 ;
745 [label="gini = 0.0\nsamples = 4\nvalue = [0, 0, 4, 0, 0, 0, 0, 0, 0]"] ;
743 -> 745 ;
746 [label="X[0] <= 126.0\ngini = 0.298\nsamples = 11\nvalue = [0, 2, 0, 9, 0, 0, 0, 0, 0]"] ;
740 -> 746 ;
747 [label="X[1] <= 2.0\ngini = 0.18\nsamples = 10\nvalue = [0, 1, 0, 9, 0, 0, 0, 0, 0]"] ;
746 -> 747 ;
748 [label="gini = 0.0\nsamples = 8\nvalue = [0, 0, 0, 8, 0, 0, 0, 0, 0]"] ;
747 -> 748 ;
749 [label="X[7] <= 3.3\ngini = 0.5\nsamples = 2\nvalue = [0, 1, 0, 1, 0, 0, 0, 0, 0]"] ;
747 -> 749 ;
750 [label="gini = 0.0\nsamples = 1\nvalue = [0, 1, 0, 0, 0, 0, 0, 0, 0]"] ;
749 -> 750 ;
751 [label="gini = 0.0\nsamples = 1\nvalue = [0, 0, 0, 1, 0, 0, 0, 0, 0]"] ;
749 -> 751 ;
752 [label="gini = 0.0\nsamples = 1\nvalue = [0, 1, 0, 0, 0, 0, 0, 0, 0]"] ;
746 -> 752 ;
753 [label="X[10] <= 18763305.0\ngini = 0.798\nsamples = 34\nvalue = [4, 8, 10, 3, 6, 0, 3, 0, 0]"] ;
697 -> 753 ;
754 [label="X[3] <= 1999.5\ngini = 0.694\nsamples = 12\nvalue = [1, 6, 1, 2, 1, 0, 1, 0, 0]"] ;
753 -> 754 ;
755 [label="X[54] <= 0.5\ngini = 0.75\nsamples = 4\nvalue = [0, 0, 1, 1, 1, 0, 1, 0, 0]"] ;
754 -> 755 ;
756 [label="X[42] <= 0.5\ngini = 0.667\nsamples = 3\nvalue = [0, 0, 1, 1, 1, 0, 0, 0, 0]"] ;
755 -> 756 ;
757 [label="X[51] <= 0.5\ngini = 0.5\nsamples = 2\nvalue = [0, 0, 1, 1, 0, 0, 0, 0, 0]"] ;
756 -> 757 ;
758 [label="gini = 0.0\nsamples = 1\nvalue = [0, 0, 1, 0, 0, 0, 0, 0, 0]"] ;
757 -> 758 ;
759 [label="gini = 0.0\nsamples = 1\nvalue = [0, 0, 0, 1, 0, 0, 0, 0, 0]"] ;
757 -> 759 ;
760 [label="gini = 0.0\nsamples = 1\nvalue = [0, 0, 0, 0, 1, 0, 0, 0, 0]"] ;
756 -> 760 ;
761 [label="gini = 0.0\nsamples = 1\nvalue = [0, 0, 0, 0, 0, 0, 1, 0, 0]"] ;
755 -> 761 ;
762 [label="X[30] <= 0.5\ngini = 0.406\nsamples = 8\nvalue = [1, 6, 0, 1, 0, 0, 0, 0, 0]"] ;
754 -> 762 ;
763 [label="gini = 0.0\nsamples = 6\nvalue = [0, 6, 0, 0, 0, 0, 0, 0, 0]"] ;
762 -> 763 ;
764 [label="X[48] <= 0.5\ngini = 0.5\nsamples = 2\nvalue = [1, 0, 0, 1, 0, 0, 0, 0, 0]"] ;
762 -> 764 ;
765 [label="gini = 0.0\nsamples = 1\nvalue = [0, 0, 0, 1, 0, 0, 0, 0, 0]"] ;
764 -> 765 ;
766 [label="gini = 0.0\nsamples = 1\nvalue = [1, 0, 0, 0, 0, 0, 0, 0, 0]"] ;
764 -> 766 ;
767 [label="X[12] <= 0.5\ngini = 0.744\nsamples = 22\nvalue = [3, 2, 9, 1, 5, 0, 2, 0, 0]"] ;
753 -> 767 ;
768 [label="X[49] <= 0.5\ngini = 0.7\nsamples = 20\nvalue = [3, 2, 9, 1, 5, 0, 0, 0, 0]"] ;
767 -> 768 ;
769 [label="X[11] <= 14.5\ngini = 0.602\nsamples = 14\nvalue = [0, 2, 8, 1, 3, 0, 0, 0, 0]"] ;
768 -> 769 ;
770 [label="X[11] <= 4.5\ngini = 0.34\nsamples = 10\nvalue = [0, 1, 8, 0, 1, 0, 0, 0, 0]"] ;
769 -> 770 ;
771 [label="gini = 0.0\nsamples = 1\nvalue = [0, 0, 0, 0, 1, 0, 0, 0, 0]"] ;
770 -> 771 ;
772 [label="X[36] <= 0.5\ngini = 0.198\nsamples = 9\nvalue = [0, 1, 8, 0, 0, 0, 0, 0, 0]"] ;
770 -> 772 ;
773 [label="gini = 0.0\nsamples = 8\nvalue = [0, 0, 8, 0, 0, 0, 0, 0, 0]"] ;
772 -> 773 ;
774 [label="gini = 0.0\nsamples = 1\nvalue = [0, 1, 0, 0, 0, 0, 0, 0, 0]"] ;
772 -> 774 ;
775 [label="X[1] <= 1.0\ngini = 0.625\nsamples = 4\nvalue = [0, 1, 0, 1, 2, 0, 0, 0, 0]"] ;
769 -> 775 ;
776 [label="gini = 0.0\nsamples = 2\nvalue = [0, 0, 0, 0, 2, 0, 0, 0, 0]"] ;
775 -> 776 ;
777 [label="X[0] <= 100.5\ngini = 0.5\nsamples = 2\nvalue = [0, 1, 0, 1, 0, 0, 0, 0, 0]"] ;
775 -> 777 ;
778 [label="gini = 0.0\nsamples = 1\nvalue = [0, 0, 0, 1, 0, 0, 0, 0, 0]"] ;
777 -> 778 ;
779 [label="gini = 0.0\nsamples = 1\nvalue = [0, 1, 0, 0, 0, 0, 0, 0, 0]"] ;
777 -> 779 ;
780 [label="X[1] <= 1.5\ngini = 0.611\nsamples = 6\nvalue = [3, 0, 1, 0, 2, 0, 0, 0, 0]"] ;
768 -> 780 ;
781 [label="gini = 0.0\nsamples = 2\nvalue = [0, 0, 0, 0, 2, 0, 0, 0, 0]"] ;
780 -> 781 ;
782 [label="X[1] <= 3.5\ngini = 0.375\nsamples = 4\nvalue = [3, 0, 1, 0, 0, 0, 0, 0, 0]"] ;
780 -> 782 ;
783 [label="gini = 0.0\nsamples = 3\nvalue = [3, 0, 0, 0, 0, 0, 0, 0, 0]"] ;
782 -> 783 ;
784 [label="gini = 0.0\nsamples = 1\nvalue = [0, 0, 1, 0, 0, 0, 0, 0, 0]"] ;
782 -> 784 ;
785 [label="gini = 0.0\nsamples = 2\nvalue = [0, 0, 0, 0, 0, 0, 2, 0, 0]"] ;
767 -> 785 ;
786 [label="X[36] <= 0.5\ngini = 0.628\nsamples = 43\nvalue = [1, 5, 24, 7, 6, 0, 0, 0, 0]"] ;
696 -> 786 ;
787 [label="X[7] <= 7.164\ngini = 0.571\nsamples = 39\nvalue = [0, 5, 24, 6, 4, 0, 0, 0, 0]"] ;
786 -> 787 ;
788 [label="X[6] <= 32340457.0\ngini = 0.538\nsamples = 37\nvalue = [0, 5, 24, 4, 4, 0, 0, 0, 0]"] ;
787 -> 788 ;
789 [label="gini = 0.0\nsamples = 10\nvalue = [0, 0, 10, 0, 0, 0, 0, 0, 0]"] ;
788 -> 789 ;
790 [label="X[39] <= 0.5\ngini = 0.653\nsamples = 27\nvalue = [0, 5, 14, 4, 4, 0, 0, 0, 0]"] ;
788 -> 790 ;
791 [label="X[35] <= 0.5\ngini = 0.601\nsamples = 23\nvalue = [0, 5, 13, 1, 4, 0, 0, 0, 0]"] ;
790 -> 791 ;
792 [label="X[6] <= 50348432.0\ngini = 0.515\nsamples = 20\nvalue = [0, 3, 13, 0, 4, 0, 0, 0, 0]"] ;
791 -> 792 ;
793 [label="X[3] <= 2003.5\ngini = 0.5\nsamples = 8\nvalue = [0, 0, 4, 0, 4, 0, 0, 0, 0]"] ;
792 -> 793 ;
794 [label="gini = 0.0\nsamples = 3\nvalue = [0, 0, 0, 0, 3, 0, 0, 0, 0]"] ;
793 -> 794 ;
795 [label="X[13] <= 0.5\ngini = 0.32\nsamples = 5\nvalue = [0, 0, 4, 0, 1, 0, 0, 0, 0]"] ;
793 -> 795 ;
796 [label="gini = 0.0\nsamples = 1\nvalue = [0, 0, 0, 0, 1, 0, 0, 0, 0]"] ;
795 -> 796 ;
797 [label="gini = 0.0\nsamples = 4\nvalue = [0, 0, 4, 0, 0, 0, 0, 0, 0]"] ;
795 -> 797 ;
798 [label="X[0] <= 107.5\ngini = 0.375\nsamples = 12\nvalue = [0, 3, 9, 0, 0, 0, 0, 0, 0]"] ;
792 -> 798 ;
799 [label="gini = 0.0\nsamples = 7\nvalue = [0, 0, 7, 0, 0, 0, 0, 0, 0]"] ;
798 -> 799 ;
800 [label="X[8] <= 2.0\ngini = 0.48\nsamples = 5\nvalue = [0, 3, 2, 0, 0, 0, 0, 0, 0]"] ;
798 -> 800 ;
801 [label="gini = 0.0\nsamples = 3\nvalue = [0, 3, 0, 0, 0, 0, 0, 0, 0]"] ;
800 -> 801 ;
802 [label="gini = 0.0\nsamples = 2\nvalue = [0, 0, 2, 0, 0, 0, 0, 0, 0]"] ;
800 -> 802 ;
803 [label="X[4] <= 5.5\ngini = 0.444\nsamples = 3\nvalue = [0, 2, 0, 1, 0, 0, 0, 0, 0]"] ;
791 -> 803 ;
804 [label="gini = 0.0\nsamples = 2\nvalue = [0, 2, 0, 0, 0, 0, 0, 0, 0]"] ;
803 -> 804 ;
805 [label="gini = 0.0\nsamples = 1\nvalue = [0, 0, 0, 1, 0, 0, 0, 0, 0]"] ;
803 -> 805 ;
806 [label="X[8] <= 11.5\ngini = 0.375\nsamples = 4\nvalue = [0, 0, 1, 3, 0, 0, 0, 0, 0]"] ;
790 -> 806 ;
807 [label="gini = 0.0\nsamples = 3\nvalue = [0, 0, 0, 3, 0, 0, 0, 0, 0]"] ;
806 -> 807 ;
808 [label="gini = 0.0\nsamples = 1\nvalue = [0, 0, 1, 0, 0, 0, 0, 0, 0]"] ;
806 -> 808 ;
809 [label="gini = 0.0\nsamples = 2\nvalue = [0, 0, 0, 2, 0, 0, 0, 0, 0]"] ;
787 -> 809 ;
810 [label="X[3] <= 1996.5\ngini = 0.625\nsamples = 4\nvalue = [1, 0, 0, 1, 2, 0, 0, 0, 0]"] ;
786 -> 810 ;
811 [label="X[1] <= 2.0\ngini = 0.5\nsamples = 2\nvalue = [1, 0, 0, 1, 0, 0, 0, 0, 0]"] ;
810 -> 811 ;
812 [label="gini = 0.0\nsamples = 1\nvalue = [1, 0, 0, 0, 0, 0, 0, 0, 0]"] ;
811 -> 812 ;
813 [label="gini = 0.0\nsamples = 1\nvalue = [0, 0, 0, 1, 0, 0, 0, 0, 0]"] ;
811 -> 813 ;
814 [label="gini = 0.0\nsamples = 2\nvalue = [0, 0, 0, 0, 2, 0, 0, 0, 0]"] ;
810 -> 814 ;
815 [label="X[9] <= 4.284\ngini = 0.568\nsamples = 9\nvalue = [0, 5, 1, 3, 0, 0, 0, 0, 0]"] ;
695 -> 815 ;
816 [label="gini = 0.0\nsamples = 4\nvalue = [0, 4, 0, 0, 0, 0, 0, 0, 0]"] ;
815 -> 816 ;
817 [label="X[1] <= 1.5\ngini = 0.56\nsamples = 5\nvalue = [0, 1, 1, 3, 0, 0, 0, 0, 0]"] ;
815 -> 817 ;
818 [label="gini = 0.0\nsamples = 3\nvalue = [0, 0, 0, 3, 0, 0, 0, 0, 0]"] ;
817 -> 818 ;
819 [label="X[46] <= 0.5\ngini = 0.5\nsamples = 2\nvalue = [0, 1, 1, 0, 0, 0, 0, 0, 0]"] ;
817 -> 819 ;
820 [label="gini = 0.0\nsamples = 1\nvalue = [0, 1, 0, 0, 0, 0, 0, 0, 0]"] ;
819 -> 820 ;
821 [label="gini = 0.0\nsamples = 1\nvalue = [0, 0, 1, 0, 0, 0, 0, 0, 0]"] ;
819 -> 821 ;
822 [label="X[10] <= 63071972.0\ngini = 0.823\nsamples = 95\nvalue = [10, 16, 16, 27, 11, 11, 3, 1, 0]"] ;
598 -> 822 ;
823 [label="X[10] <= 19998385.0\ngini = 0.824\nsamples = 90\nvalue = [10, 16, 12, 26, 11, 11, 3, 1, 0]"] ;
822 -> 823 ;
824 [label="X[4] <= 5.5\ngini = 0.76\nsamples = 45\nvalue = [4, 6, 5, 19, 6, 3, 1, 1, 0]"] ;
823 -> 824 ;
825 [label="X[6] <= 12985769.5\ngini = 0.778\nsamples = 12\nvalue = [3, 4, 1, 2, 1, 1, 0, 0, 0]"] ;
824 -> 825 ;
826 [label="X[9] <= 0.333\ngini = 0.5\nsamples = 6\nvalue = [1, 4, 1, 0, 0, 0, 0, 0, 0]"] ;
825 -> 826 ;
827 [label="X[1] <= 0.5\ngini = 0.5\nsamples = 2\nvalue = [1, 0, 1, 0, 0, 0, 0, 0, 0]"] ;
826 -> 827 ;
828 [label="gini = 0.0\nsamples = 1\nvalue = [1, 0, 0, 0, 0, 0, 0, 0, 0]"] ;
827 -> 828 ;
829 [label="gini = 0.0\nsamples = 1\nvalue = [0, 0, 1, 0, 0, 0, 0, 0, 0]"] ;
827 -> 829 ;
830 [label="gini = 0.0\nsamples = 4\nvalue = [0, 4, 0, 0, 0, 0, 0, 0, 0]"] ;
826 -> 830 ;
831 [label="X[9] <= 2.42\ngini = 0.722\nsamples = 6\nvalue = [2, 0, 0, 2, 1, 1, 0, 0, 0]"] ;
825 -> 831 ;
832 [label="X[5] <= 2.1\ngini = 0.625\nsamples = 4\nvalue = [2, 0, 0, 0, 1, 1, 0, 0, 0]"] ;
831 -> 832 ;
833 [label="X[11] <= 4.5\ngini = 0.5\nsamples = 2\nvalue = [0, 0, 0, 0, 1, 1, 0, 0, 0]"] ;
832 -> 833 ;
834 [label="gini = 0.0\nsamples = 1\nvalue = [0, 0, 0, 0, 0, 1, 0, 0, 0]"] ;
833 -> 834 ;
835 [label="gini = 0.0\nsamples = 1\nvalue = [0, 0, 0, 0, 1, 0, 0, 0, 0]"] ;
833 -> 835 ;
836 [label="gini = 0.0\nsamples = 2\nvalue = [2, 0, 0, 0, 0, 0, 0, 0, 0]"] ;
832 -> 836 ;
837 [label="gini = 0.0\nsamples = 2\nvalue = [0, 0, 0, 2, 0, 0, 0, 0, 0]"] ;
831 -> 837 ;
838 [label="X[4] <= 6.45\ngini = 0.687\nsamples = 33\nvalue = [1, 2, 4, 17, 5, 2, 1, 1, 0]"] ;
824 -> 838 ;
839 [label="X[8] <= 1.5\ngini = 0.517\nsamples = 24\nvalue = [1, 0, 4, 16, 2, 0, 0, 1, 0]"] ;
838 -> 839 ;
840 [label="X[4] <= 5.65\ngini = 0.36\nsamples = 19\nvalue = [1, 0, 1, 15, 2, 0, 0, 0, 0]"] ;
839 -> 840 ;
841 [label="X[40] <= 0.5\ngini = 0.444\nsamples = 3\nvalue = [0, 0, 0, 1, 2, 0, 0, 0, 0]"] ;
840 -> 841 ;
842 [label="gini = 0.0\nsamples = 2\nvalue = [0, 0, 0, 0, 2, 0, 0, 0, 0]"] ;
841 -> 842 ;
843 [label="gini = 0.0\nsamples = 1\nvalue = [0, 0, 0, 1, 0, 0, 0, 0, 0]"] ;
841 -> 843 ;
844 [label="X[9] <= 4.25\ngini = 0.227\nsamples = 16\nvalue = [1, 0, 1, 14, 0, 0, 0, 0, 0]"] ;
840 -> 844 ;
845 [label="X[30] <= 0.5\ngini = 0.124\nsamples = 15\nvalue = [1, 0, 0, 14, 0, 0, 0, 0, 0]"] ;
844 -> 845 ;
846 [label="gini = 0.0\nsamples = 13\nvalue = [0, 0, 0, 13, 0, 0, 0, 0, 0]"] ;
845 -> 846 ;
847 [label="X[9] <= 0.775\ngini = 0.5\nsamples = 2\nvalue = [1, 0, 0, 1, 0, 0, 0, 0, 0]"] ;
845 -> 847 ;
848 [label="gini = 0.0\nsamples = 1\nvalue = [0, 0, 0, 1, 0, 0, 0, 0, 0]"] ;
847 -> 848 ;
849 [label="gini = 0.0\nsamples = 1\nvalue = [1, 0, 0, 0, 0, 0, 0, 0, 0]"] ;
847 -> 849 ;
850 [label="gini = 0.0\nsamples = 1\nvalue = [0, 0, 1, 0, 0, 0, 0, 0, 0]"] ;
844 -> 850 ;
851 [label="X[3] <= 2013.5\ngini = 0.56\nsamples = 5\nvalue = [0, 0, 3, 1, 0, 0, 0, 1, 0]"] ;
839 -> 851 ;
852 [label="gini = 0.0\nsamples = 3\nvalue = [0, 0, 3, 0, 0, 0, 0, 0, 0]"] ;
851 -> 852 ;
853 [label="X[7] <= 6.583\ngini = 0.5\nsamples = 2\nvalue = [0, 0, 0, 1, 0, 0, 0, 1, 0]"] ;
851 -> 853 ;
854 [label="gini = 0.0\nsamples = 1\nvalue = [0, 0, 0, 1, 0, 0, 0, 0, 0]"] ;
853 -> 854 ;
855 [label="gini = 0.0\nsamples = 1\nvalue = [0, 0, 0, 0, 0, 0, 0, 1, 0]"] ;
853 -> 855 ;
856 [label="X[0] <= 101.5\ngini = 0.765\nsamples = 9\nvalue = [0, 2, 0, 1, 3, 2, 1, 0, 0]"] ;
838 -> 856 ;
857 [label="gini = 0.0\nsamples = 3\nvalue = [0, 0, 0, 0, 3, 0, 0, 0, 0]"] ;
856 -> 857 ;
858 [label="X[4] <= 6.55\ngini = 0.722\nsamples = 6\nvalue = [0, 2, 0, 1, 0, 2, 1, 0, 0]"] ;
856 -> 858 ;
859 [label="gini = 0.0\nsamples = 2\nvalue = [0, 0, 0, 0, 0, 2, 0, 0, 0]"] ;
858 -> 859 ;
860 [label="X[6] <= 57695350.0\ngini = 0.625\nsamples = 4\nvalue = [0, 2, 0, 1, 0, 0, 1, 0, 0]"] ;
858 -> 860 ;
861 [label="gini = 0.0\nsamples = 2\nvalue = [0, 2, 0, 0, 0, 0, 0, 0, 0]"] ;
860 -> 861 ;
862 [label="X[5] <= 2.1\ngini = 0.5\nsamples = 2\nvalue = [0, 0, 0, 1, 0, 0, 1, 0, 0]"] ;
860 -> 862 ;
863 [label="gini = 0.0\nsamples = 1\nvalue = [0, 0, 0, 0, 0, 0, 1, 0, 0]"] ;
862 -> 863 ;
864 [label="gini = 0.0\nsamples = 1\nvalue = [0, 0, 0, 1, 0, 0, 0, 0, 0]"] ;
862 -> 864 ;
865 [label="X[42] <= 0.5\ngini = 0.839\nsamples = 45\nvalue = [6, 10, 7, 7, 5, 8, 2, 0, 0]"] ;
823 -> 865 ;
866 [label="X[35] <= 0.5\ngini = 0.767\nsamples = 23\nvalue = [5, 8, 3, 4, 3, 0, 0, 0, 0]"] ;
865 -> 866 ;
867 [label="X[10] <= 25607869.0\ngini = 0.569\nsamples = 12\nvalue = [5, 6, 0, 1, 0, 0, 0, 0, 0]"] ;
866 -> 867 ;
868 [label="gini = 0.0\nsamples = 4\nvalue = [0, 4, 0, 0, 0, 0, 0, 0, 0]"] ;
867 -> 868 ;
869 [label="X[9] <= 4.753\ngini = 0.531\nsamples = 8\nvalue = [5, 2, 0, 1, 0, 0, 0, 0, 0]"] ;
867 -> 869 ;
870 [label="gini = 0.0\nsamples = 5\nvalue = [5, 0, 0, 0, 0, 0, 0, 0, 0]"] ;
869 -> 870 ;
871 [label="X[1] <= 4.0\ngini = 0.444\nsamples = 3\nvalue = [0, 2, 0, 1, 0, 0, 0, 0, 0]"] ;
869 -> 871 ;
872 [label="gini = 0.0\nsamples = 2\nvalue = [0, 2, 0, 0, 0, 0, 0, 0, 0]"] ;
871 -> 872 ;
873 [label="gini = 0.0\nsamples = 1\nvalue = [0, 0, 0, 1, 0, 0, 0, 0, 0]"] ;
871 -> 873 ;
874 [label="X[31] <= 0.5\ngini = 0.744\nsamples = 11\nvalue = [0, 2, 3, 3, 3, 0, 0, 0, 0]"] ;
866 -> 874 ;
875 [label="X[1] <= 2.5\ngini = 0.612\nsamples = 7\nvalue = [0, 1, 3, 3, 0, 0, 0, 0, 0]"] ;
874 -> 875 ;
876 [label="X[8] <= 3.5\ngini = 0.56\nsamples = 5\nvalue = [0, 1, 1, 3, 0, 0, 0, 0, 0]"] ;
875 -> 876 ;
877 [label="gini = 0.0\nsamples = 3\nvalue = [0, 0, 0, 3, 0, 0, 0, 0, 0]"] ;
876 -> 877 ;
878 [label="X[2] <= 23500000.0\ngini = 0.5\nsamples = 2\nvalue = [0, 1, 1, 0, 0, 0, 0, 0, 0]"] ;
876 -> 878 ;
879 [label="gini = 0.0\nsamples = 1\nvalue = [0, 0, 1, 0, 0, 0, 0, 0, 0]"] ;
878 -> 879 ;
880 [label="gini = 0.0\nsamples = 1\nvalue = [0, 1, 0, 0, 0, 0, 0, 0, 0]"] ;
878 -> 880 ;
881 [label="gini = 0.0\nsamples = 2\nvalue = [0, 0, 2, 0, 0, 0, 0, 0, 0]"] ;
875 -> 881 ;
882 [label="X[0] <= 100.0\ngini = 0.375\nsamples = 4\nvalue = [0, 1, 0, 0, 3, 0, 0, 0, 0]"] ;
874 -> 882 ;
883 [label="gini = 0.0\nsamples = 1\nvalue = [0, 1, 0, 0, 0, 0, 0, 0, 0]"] ;
882 -> 883 ;
884 [label="gini = 0.0\nsamples = 3\nvalue = [0, 0, 0, 0, 3, 0, 0, 0, 0]"] ;
882 -> 884 ;
885 [label="X[0] <= 103.0\ngini = 0.789\nsamples = 22\nvalue = [1, 2, 4, 3, 2, 8, 2, 0, 0]"] ;
865 -> 885 ;
886 [label="X[7] <= 7.067\ngini = 0.793\nsamples = 13\nvalue = [0, 2, 4, 3, 1, 1, 2, 0, 0]"] ;
885 -> 886 ;
887 [label="X[46] <= 0.5\ngini = 0.8\nsamples = 10\nvalue = [0, 2, 1, 3, 1, 1, 2, 0, 0]"] ;
886 -> 887 ;
888 [label="X[7] <= 6.05\ngini = 0.75\nsamples = 8\nvalue = [0, 0, 1, 3, 1, 1, 2, 0, 0]"] ;
887 -> 888 ;
889 [label="X[1] <= 1.0\ngini = 0.375\nsamples = 4\nvalue = [0, 0, 0, 3, 0, 1, 0, 0, 0]"] ;
888 -> 889 ;
890 [label="gini = 0.0\nsamples = 1\nvalue = [0, 0, 0, 0, 0, 1, 0, 0, 0]"] ;
889 -> 890 ;
891 [label="gini = 0.0\nsamples = 3\nvalue = [0, 0, 0, 3, 0, 0, 0, 0, 0]"] ;
889 -> 891 ;
892 [label="X[1] <= 2.5\ngini = 0.625\nsamples = 4\nvalue = [0, 0, 1, 0, 1, 0, 2, 0, 0]"] ;
888 -> 892 ;
893 [label="gini = 0.0\nsamples = 2\nvalue = [0, 0, 0, 0, 0, 0, 2, 0, 0]"] ;
892 -> 893 ;
894 [label="X[10] <= 35632307.0\ngini = 0.5\nsamples = 2\nvalue = [0, 0, 1, 0, 1, 0, 0, 0, 0]"] ;
892 -> 894 ;
895 [label="gini = 0.0\nsamples = 1\nvalue = [0, 0, 1, 0, 0, 0, 0, 0, 0]"] ;
894 -> 895 ;
896 [label="gini = 0.0\nsamples = 1\nvalue = [0, 0, 0, 0, 1, 0, 0, 0, 0]"] ;
894 -> 896 ;
897 [label="gini = 0.0\nsamples = 2\nvalue = [0, 2, 0, 0, 0, 0, 0, 0, 0]"] ;
887 -> 897 ;
898 [label="gini = 0.0\nsamples = 3\nvalue = [0, 0, 3, 0, 0, 0, 0, 0, 0]"] ;
886 -> 898 ;
899 [label="X[3] <= 2010.5\ngini = 0.37\nsamples = 9\nvalue = [1, 0, 0, 0, 1, 7, 0, 0, 0]"] ;
885 -> 899 ;
900 [label="X[5] <= 1.815\ngini = 0.5\nsamples = 2\nvalue = [1, 0, 0, 0, 1, 0, 0, 0, 0]"] ;
899 -> 900 ;
901 [label="gini = 0.0\nsamples = 1\nvalue = [1, 0, 0, 0, 0, 0, 0, 0, 0]"] ;
900 -> 901 ;
902 [label="gini = 0.0\nsamples = 1\nvalue = [0, 0, 0, 0, 1, 0, 0, 0, 0]"] ;
900 -> 902 ;
903 [label="gini = 0.0\nsamples = 7\nvalue = [0, 0, 0, 0, 0, 7, 0, 0, 0]"] ;
899 -> 903 ;
904 [label="X[40] <= 0.5\ngini = 0.32\nsamples = 5\nvalue = [0, 0, 4, 1, 0, 0, 0, 0, 0]"] ;
822 -> 904 ;
905 [label="gini = 0.0\nsamples = 4\nvalue = [0, 0, 4, 0, 0, 0, 0, 0, 0]"] ;
904 -> 905 ;
906 [label="gini = 0.0\nsamples = 1\nvalue = [0, 0, 0, 1, 0, 0, 0, 0, 0]"] ;
904 -> 906 ;
907 [label="X[10] <= 8264267.5\ngini = 0.788\nsamples = 62\nvalue = [0, 7, 11, 17, 18, 5, 2, 2, 0]"] ;
597 -> 907 ;
908 [label="X[4] <= 6.1\ngini = 0.735\nsamples = 21\nvalue = [0, 1, 5, 9, 2, 2, 1, 1, 0]"] ;
907 -> 908 ;
909 [label="X[9] <= 0.693\ngini = 0.796\nsamples = 14\nvalue = [0, 1, 5, 2, 2, 2, 1, 1, 0]"] ;
908 -> 909 ;
910 [label="X[1] <= 2.0\ngini = 0.84\nsamples = 9\nvalue = [0, 1, 1, 2, 1, 2, 1, 1, 0]"] ;
909 -> 910 ;
911 [label="X[5] <= 2.1\ngini = 0.776\nsamples = 7\nvalue = [0, 1, 0, 2, 1, 2, 1, 0, 0]"] ;
910 -> 911 ;
912 [label="X[41] <= 0.5\ngini = 0.722\nsamples = 6\nvalue = [0, 1, 0, 2, 0, 2, 1, 0, 0]"] ;
911 -> 912 ;
913 [label="X[37] <= 0.5\ngini = 0.64\nsamples = 5\nvalue = [0, 1, 0, 2, 0, 2, 0, 0, 0]"] ;
912 -> 913 ;
914 [label="X[8] <= 0.5\ngini = 0.5\nsamples = 4\nvalue = [0, 0, 0, 2, 0, 2, 0, 0, 0]"] ;
913 -> 914 ;
915 [label="X[0] <= 89.5\ngini = 0.444\nsamples = 3\nvalue = [0, 0, 0, 2, 0, 1, 0, 0, 0]"] ;
914 -> 915 ;
916 [label="gini = 0.0\nsamples = 1\nvalue = [0, 0, 0, 0, 0, 1, 0, 0, 0]"] ;
915 -> 916 ;
917 [label="gini = 0.0\nsamples = 2\nvalue = [0, 0, 0, 2, 0, 0, 0, 0, 0]"] ;
915 -> 917 ;
918 [label="gini = 0.0\nsamples = 1\nvalue = [0, 0, 0, 0, 0, 1, 0, 0, 0]"] ;
914 -> 918 ;
919 [label="gini = 0.0\nsamples = 1\nvalue = [0, 1, 0, 0, 0, 0, 0, 0, 0]"] ;
913 -> 919 ;
920 [label="gini = 0.0\nsamples = 1\nvalue = [0, 0, 0, 0, 0, 0, 1, 0, 0]"] ;
912 -> 920 ;
921 [label="gini = 0.0\nsamples = 1\nvalue = [0, 0, 0, 0, 1, 0, 0, 0, 0]"] ;
911 -> 921 ;
922 [label="X[6] <= 46528284.0\ngini = 0.5\nsamples = 2\nvalue = [0, 0, 1, 0, 0, 0, 0, 1, 0]"] ;
910 -> 922 ;
923 [label="gini = 0.0\nsamples = 1\nvalue = [0, 0, 1, 0, 0, 0, 0, 0, 0]"] ;
922 -> 923 ;
924 [label="gini = 0.0\nsamples = 1\nvalue = [0, 0, 0, 0, 0, 0, 0, 1, 0]"] ;
922 -> 924 ;
925 [label="X[4] <= 3.8\ngini = 0.32\nsamples = 5\nvalue = [0, 0, 4, 0, 1, 0, 0, 0, 0]"] ;
909 -> 925 ;
926 [label="gini = 0.0\nsamples = 1\nvalue = [0, 0, 0, 0, 1, 0, 0, 0, 0]"] ;
925 -> 926 ;
927 [label="gini = 0.0\nsamples = 4\nvalue = [0, 0, 4, 0, 0, 0, 0, 0, 0]"] ;
925 -> 927 ;
928 [label="gini = 0.0\nsamples = 7\nvalue = [0, 0, 0, 7, 0, 0, 0, 0, 0]"] ;
908 -> 928 ;
929 [label="X[4] <= 4.6\ngini = 0.76\nsamples = 41\nvalue = [0, 6, 6, 8, 16, 3, 1, 1, 0]"] ;
907 -> 929 ;
930 [label="X[4] <= 2.65\ngini = 0.5\nsamples = 6\nvalue = [0, 4, 0, 1, 0, 1, 0, 0, 0]"] ;
929 -> 930 ;
931 [label="gini = 0.0\nsamples = 1\nvalue = [0, 0, 0, 1, 0, 0, 0, 0, 0]"] ;
930 -> 931 ;
932 [label="X[6] <= 105833272.0\ngini = 0.32\nsamples = 5\nvalue = [0, 4, 0, 0, 0, 1, 0, 0, 0]"] ;
930 -> 932 ;
933 [label="gini = 0.0\nsamples = 4\nvalue = [0, 4, 0, 0, 0, 0, 0, 0, 0]"] ;
932 -> 933 ;
934 [label="gini = 0.0\nsamples = 1\nvalue = [0, 0, 0, 0, 0, 1, 0, 0, 0]"] ;
932 -> 934 ;
935 [label="X[10] <= 24631437.0\ngini = 0.713\nsamples = 35\nvalue = [0, 2, 6, 7, 16, 2, 1, 1, 0]"] ;
929 -> 935 ;
936 [label="X[1] <= 2.5\ngini = 0.567\nsamples = 21\nvalue = [0, 1, 4, 2, 13, 1, 0, 0, 0]"] ;
935 -> 936 ;
937 [label="X[48] <= 0.5\ngini = 0.426\nsamples = 18\nvalue = [0, 0, 4, 0, 13, 1, 0, 0, 0]"] ;
936 -> 937 ;
938 [label="X[42] <= 0.5\ngini = 0.305\nsamples = 16\nvalue = [0, 0, 3, 0, 13, 0, 0, 0, 0]"] ;
937 -> 938 ;
939 [label="X[4] <= 5.85\ngini = 0.48\nsamples = 5\nvalue = [0, 0, 3, 0, 2, 0, 0, 0, 0]"] ;
938 -> 939 ;
940 [label="gini = 0.0\nsamples = 2\nvalue = [0, 0, 0, 0, 2, 0, 0, 0, 0]"] ;
939 -> 940 ;
941 [label="gini = 0.0\nsamples = 3\nvalue = [0, 0, 3, 0, 0, 0, 0, 0, 0]"] ;
939 -> 941 ;
942 [label="gini = 0.0\nsamples = 11\nvalue = [0, 0, 0, 0, 11, 0, 0, 0, 0]"] ;
938 -> 942 ;
943 [label="X[3] <= 2007.5\ngini = 0.5\nsamples = 2\nvalue = [0, 0, 1, 0, 0, 1, 0, 0, 0]"] ;
937 -> 943 ;
944 [label="gini = 0.0\nsamples = 1\nvalue = [0, 0, 0, 0, 0, 1, 0, 0, 0]"] ;
943 -> 944 ;
945 [label="gini = 0.0\nsamples = 1\nvalue = [0, 0, 1, 0, 0, 0, 0, 0, 0]"] ;
943 -> 945 ;
946 [label="X[0] <= 108.0\ngini = 0.444\nsamples = 3\nvalue = [0, 1, 0, 2, 0, 0, 0, 0, 0]"] ;
936 -> 946 ;
947 [label="gini = 0.0\nsamples = 2\nvalue = [0, 0, 0, 2, 0, 0, 0, 0, 0]"] ;
946 -> 947 ;
948 [label="gini = 0.0\nsamples = 1\nvalue = [0, 1, 0, 0, 0, 0, 0, 0, 0]"] ;
946 -> 948 ;
949 [label="X[3] <= 2001.5\ngini = 0.786\nsamples = 14\nvalue = [0, 1, 2, 5, 3, 1, 1, 1, 0]"] ;
935 -> 949 ;
950 [label="X[3] <= 1996.5\ngini = 0.625\nsamples = 4\nvalue = [0, 0, 2, 0, 0, 0, 1, 1, 0]"] ;
949 -> 950 ;
951 [label="X[11] <= 3.5\ngini = 0.5\nsamples = 2\nvalue = [0, 0, 0, 0, 0, 0, 1, 1, 0]"] ;
950 -> 951 ;
952 [label="gini = 0.0\nsamples = 1\nvalue = [0, 0, 0, 0, 0, 0, 0, 1, 0]"] ;
951 -> 952 ;
953 [label="gini = 0.0\nsamples = 1\nvalue = [0, 0, 0, 0, 0, 0, 1, 0, 0]"] ;
951 -> 953 ;
954 [label="gini = 0.0\nsamples = 2\nvalue = [0, 0, 2, 0, 0, 0, 0, 0, 0]"] ;
950 -> 954 ;
955 [label="X[7] <= 5.963\ngini = 0.64\nsamples = 10\nvalue = [0, 1, 0, 5, 3, 1, 0, 0, 0]"] ;
949 -> 955 ;
956 [label="X[10] <= 25230511.0\ngini = 0.449\nsamples = 7\nvalue = [0, 1, 0, 5, 1, 0, 0, 0, 0]"] ;
955 -> 956 ;
957 [label="gini = 0.0\nsamples = 1\nvalue = [0, 1, 0, 0, 0, 0, 0, 0, 0]"] ;
956 -> 957 ;
958 [label="X[0] <= 76.0\ngini = 0.278\nsamples = 6\nvalue = [0, 0, 0, 5, 1, 0, 0, 0, 0]"] ;
956 -> 958 ;
959 [label="gini = 0.0\nsamples = 1\nvalue = [0, 0, 0, 0, 1, 0, 0, 0, 0]"] ;
958 -> 959 ;
960 [label="gini = 0.0\nsamples = 5\nvalue = [0, 0, 0, 5, 0, 0, 0, 0, 0]"] ;
958 -> 960 ;
961 [label="X[8] <= 3.5\ngini = 0.444\nsamples = 3\nvalue = [0, 0, 0, 0, 2, 1, 0, 0, 0]"] ;
955 -> 961 ;
962 [label="gini = 0.0\nsamples = 2\nvalue = [0, 0, 0, 0, 2, 0, 0, 0, 0]"] ;
961 -> 962 ;
963 [label="gini = 0.0\nsamples = 1\nvalue = [0, 0, 0, 0, 0, 1, 0, 0, 0]"] ;
961 -> 963 ;
964 [label="X[1] <= 0.5\ngini = 0.72\nsamples = 71\nvalue = [2, 6, 12, 30, 18, 2, 1, 0, 0]"] ;
596 -> 964 ;
965 [label="X[10] <= 39216160.0\ngini = 0.624\nsamples = 43\nvalue = [1, 2, 3, 22, 14, 1, 0, 0, 0]"] ;
964 -> 965 ;
966 [label="X[10] <= 24349696.0\ngini = 0.644\nsamples = 36\nvalue = [1, 2, 2, 16, 14, 1, 0, 0, 0]"] ;
965 -> 966 ;
967 [label="X[3] <= 2004.5\ngini = 0.556\nsamples = 31\nvalue = [1, 0, 1, 16, 13, 0, 0, 0, 0]"] ;
966 -> 967 ;
968 [label="X[9] <= 1.444\ngini = 0.403\nsamples = 12\nvalue = [0, 0, 1, 9, 2, 0, 0, 0, 0]"] ;
967 -> 968 ;
969 [label="gini = 0.0\nsamples = 8\nvalue = [0, 0, 0, 8, 0, 0, 0, 0, 0]"] ;
968 -> 969 ;
970 [label="X[0] <= 91.0\ngini = 0.625\nsamples = 4\nvalue = [0, 0, 1, 1, 2, 0, 0, 0, 0]"] ;
968 -> 970 ;
971 [label="X[7] <= 2.75\ngini = 0.5\nsamples = 2\nvalue = [0, 0, 1, 1, 0, 0, 0, 0, 0]"] ;
970 -> 971 ;
972 [label="gini = 0.0\nsamples = 1\nvalue = [0, 0, 0, 1, 0, 0, 0, 0, 0]"] ;
971 -> 972 ;
973 [label="gini = 0.0\nsamples = 1\nvalue = [0, 0, 1, 0, 0, 0, 0, 0, 0]"] ;
971 -> 973 ;
974 [label="gini = 0.0\nsamples = 2\nvalue = [0, 0, 0, 0, 2, 0, 0, 0, 0]"] ;
970 -> 974 ;
975 [label="X[9] <= 0.8\ngini = 0.526\nsamples = 19\nvalue = [1, 0, 0, 7, 11, 0, 0, 0, 0]"] ;
967 -> 975 ;
976 [label="gini = 0.0\nsamples = 6\nvalue = [0, 0, 0, 0, 6, 0, 0, 0, 0]"] ;
975 -> 976 ;
977 [label="X[7] <= 5.4\ngini = 0.556\nsamples = 13\nvalue = [1, 0, 0, 7, 5, 0, 0, 0, 0]"] ;
975 -> 977 ;
978 [label="X[0] <= 92.0\ngini = 0.568\nsamples = 9\nvalue = [1, 0, 0, 3, 5, 0, 0, 0, 0]"] ;
977 -> 978 ;
979 [label="X[51] <= 0.5\ngini = 0.375\nsamples = 4\nvalue = [0, 0, 0, 3, 1, 0, 0, 0, 0]"] ;
978 -> 979 ;
980 [label="gini = 0.0\nsamples = 3\nvalue = [0, 0, 0, 3, 0, 0, 0, 0, 0]"] ;
979 -> 980 ;
981 [label="gini = 0.0\nsamples = 1\nvalue = [0, 0, 0, 0, 1, 0, 0, 0, 0]"] ;
979 -> 981 ;
982 [label="X[10] <= 19622136.0\ngini = 0.32\nsamples = 5\nvalue = [1, 0, 0, 0, 4, 0, 0, 0, 0]"] ;
978 -> 982 ;
983 [label="gini = 0.0\nsamples = 4\nvalue = [0, 0, 0, 0, 4, 0, 0, 0, 0]"] ;
982 -> 983 ;
984 [label="gini = 0.0\nsamples = 1\nvalue = [1, 0, 0, 0, 0, 0, 0, 0, 0]"] ;
982 -> 984 ;
985 [label="gini = 0.0\nsamples = 4\nvalue = [0, 0, 0, 4, 0, 0, 0, 0, 0]"] ;
977 -> 985 ;
986 [label="X[32] <= 0.5\ngini = 0.72\nsamples = 5\nvalue = [0, 2, 1, 0, 1, 1, 0, 0, 0]"] ;
966 -> 986 ;
987 [label="X[5] <= 2.1\ngini = 0.5\nsamples = 2\nvalue = [0, 0, 1, 0, 0, 1, 0, 0, 0]"] ;
986 -> 987 ;
988 [label="gini = 0.0\nsamples = 1\nvalue = [0, 0, 1, 0, 0, 0, 0, 0, 0]"] ;
987 -> 988 ;
989 [label="gini = 0.0\nsamples = 1\nvalue = [0, 0, 0, 0, 0, 1, 0, 0, 0]"] ;
987 -> 989 ;
990 [label="X[5] <= 1.59\ngini = 0.444\nsamples = 3\nvalue = [0, 2, 0, 0, 1, 0, 0, 0, 0]"] ;
986 -> 990 ;
991 [label="gini = 0.0\nsamples = 1\nvalue = [0, 0, 0, 0, 1, 0, 0, 0, 0]"] ;
990 -> 991 ;
992 [label="gini = 0.0\nsamples = 2\nvalue = [0, 2, 0, 0, 0, 0, 0, 0, 0]"] ;
990 -> 992 ;
993 [label="X[8] <= 2.5\ngini = 0.245\nsamples = 7\nvalue = [0, 0, 1, 6, 0, 0, 0, 0, 0]"] ;
965 -> 993 ;
994 [label="gini = 0.0\nsamples = 6\nvalue = [0, 0, 0, 6, 0, 0, 0, 0, 0]"] ;
993 -> 994 ;
995 [label="gini = 0.0\nsamples = 1\nvalue = [0, 0, 1, 0, 0, 0, 0, 0, 0]"] ;
993 -> 995 ;
996 [label="X[0] <= 100.5\ngini = 0.77\nsamples = 28\nvalue = [1, 4, 9, 8, 4, 1, 1, 0, 0]"] ;
964 -> 996 ;
997 [label="X[0] <= 90.0\ngini = 0.742\nsamples = 19\nvalue = [1, 3, 3, 8, 3, 1, 0, 0, 0]"] ;
996 -> 997 ;
998 [label="X[7] <= 2.95\ngini = 0.667\nsamples = 6\nvalue = [0, 2, 2, 0, 2, 0, 0, 0, 0]"] ;
997 -> 998 ;
999 [label="X[10] <= 1025741.844\ngini = 0.5\nsamples = 4\nvalue = [0, 2, 2, 0, 0, 0, 0, 0, 0]"] ;
998 -> 999 ;
1000 [label="gini = 0.0\nsamples = 2\nvalue = [0, 2, 0, 0, 0, 0, 0, 0, 0]"] ;
999 -> 1000 ;
1001 [label="gini = 0.0\nsamples = 2\nvalue = [0, 0, 2, 0, 0, 0, 0, 0, 0]"] ;
999 -> 1001 ;
1002 [label="gini = 0.0\nsamples = 2\nvalue = [0, 0, 0, 0, 2, 0, 0, 0, 0]"] ;
998 -> 1002 ;
1003 [label="X[10] <= 4028766.25\ngini = 0.592\nsamples = 13\nvalue = [1, 1, 1, 8, 1, 1, 0, 0, 0]"] ;
997 -> 1003 ;
1004 [label="X[11] <= 2.5\ngini = 0.5\nsamples = 2\nvalue = [1, 0, 0, 0, 0, 1, 0, 0, 0]"] ;
1003 -> 1004 ;
1005 [label="gini = 0.0\nsamples = 1\nvalue = [0, 0, 0, 0, 0, 1, 0, 0, 0]"] ;
1004 -> 1005 ;
1006 [label="gini = 0.0\nsamples = 1\nvalue = [1, 0, 0, 0, 0, 0, 0, 0, 0]"] ;
1004 -> 1006 ;
1007 [label="X[7] <= 3.567\ngini = 0.446\nsamples = 11\nvalue = [0, 1, 1, 8, 1, 0, 0, 0, 0]"] ;
1003 -> 1007 ;
1008 [label="X[36] <= 0.5\ngini = 0.34\nsamples = 10\nvalue = [0, 1, 0, 8, 1, 0, 0, 0, 0]"] ;
1007 -> 1008 ;
1009 [label="X[4] <= 6.15\ngini = 0.198\nsamples = 9\nvalue = [0, 0, 0, 8, 1, 0, 0, 0, 0]"] ;
1008 -> 1009 ;
1010 [label="gini = 0.0\nsamples = 7\nvalue = [0, 0, 0, 7, 0, 0, 0, 0, 0]"] ;
1009 -> 1010 ;
